/*!
 * The following copyright notice may not be removed under any circumstances.
 * 
 * Copyright:
 * © copyright by Fontbit 2000
 */
Cufon.registerFont({"w":817,"face":{"font-family":"HadasaNew","font-weight":400,"font-stretch":"normal","units-per-em":"2048","panose-1":"0 0 0 0 0 0 0 0 0 0","ascent":"1505","descent":"-543","x-height":"21","bbox":"-530 -1427 2562 1427","underline-thickness":"150","underline-position":"-142","unicode-range":"U+0020-U+FB4F"},"glyphs":{" ":{"w":398},"!":{"d":"287,-1230v49,65,65,208,48,327r-74,524r-62,0r-30,-453v-9,-138,-47,-207,-114,-207r-1,-49xm368,-113r-126,135r-29,0r-126,-135r0,-27r126,-131r29,0r126,131r0,27","w":528},"\"":{"d":"598,-1095v0,178,-56,306,-169,383r-49,-45v54,-74,55,-243,35,-387r158,0v17,0,25,16,25,49xm291,-1095v0,178,-56,306,-169,383r-49,-45v54,-74,55,-244,34,-387r158,0v17,0,26,16,26,49","w":689},"#":{"d":"777,-685r-127,0r-42,204r133,0r0,127r-160,0r-45,238r-117,0r48,-238r-166,0r-45,238r-117,0r45,-238r-129,0r0,-127r153,0r40,-204r-133,0r0,-125r156,0r56,-275r115,0r-55,275r166,0r54,-275r114,0r-56,275r112,0r0,125xm531,-685r-166,0r-40,204r166,0","w":832},"$":{"d":"18,-678v0,-176,102,-338,248,-362r0,-130r80,-36r0,152v46,1,113,14,202,39r-40,207r-40,0v-17,-39,-73,-85,-122,-86r0,278v85,21,141,40,168,57v49,31,74,81,74,150v-1,143,-50,261,-139,333v-39,32,-72,51,-103,54r0,143r-80,38r0,-177v-91,0,-170,-23,-237,-69r29,-192r42,0v18,60,92,111,166,111r0,-298v-165,-39,-248,-109,-248,-212xm266,-894v-72,-2,-162,64,-162,135v0,51,54,94,162,129r0,-264xm346,-175v71,4,160,-81,160,-152v0,-60,-101,-114,-160,-125r0,277","w":651},"%":{"d":"322,-1066v123,-3,209,119,209,247v0,133,-116,273,-247,273v-110,0,-193,-146,-193,-262v0,-106,44,-182,131,-228v39,-20,72,-30,100,-30xm970,-1019r-724,1028r-124,0r0,-32r724,-1026r124,0r0,30xm799,-495v124,-3,209,118,209,247v0,133,-116,273,-247,273v-109,0,-193,-146,-193,-263v0,-105,44,-181,131,-227v39,-20,72,-30,100,-30xm202,-881v0,96,58,225,145,225v42,0,63,-30,63,-91v0,-94,-62,-218,-148,-218v-40,0,-60,28,-60,84xm679,-310v0,95,58,225,145,225v42,0,63,-30,63,-91v0,-93,-62,-218,-148,-218v-40,0,-60,28,-60,84","w":1099},"&":{"d":"1156,-175v0,117,-59,175,-177,175r-519,0r0,-514r46,0r53,106r0,245r389,0v65,0,97,-33,97,-98r0,-576r41,0r70,133r0,529xm841,-384r-54,106r-42,0r0,-288v0,-71,-32,-106,-96,-106r-380,0r0,572r-67,100r-38,0r0,-834r519,0v105,0,158,58,158,174r0,276","w":1319},"'":{"d":"291,-1095v0,178,-56,306,-169,383r-49,-45v54,-74,55,-244,34,-387r158,0v17,0,26,16,26,49","w":382},"(":{"d":"224,-541v0,277,113,533,257,684r-110,78r-22,0v-368,-471,-368,-1053,0,-1524r22,0r110,78v-171,184,-257,412,-257,684","w":554},")":{"d":"55,161v142,-149,257,-426,257,-702v0,-272,-86,-500,-257,-684r110,-78r21,0v369,471,369,1053,0,1524r-21,0","w":554},"*":{"d":"734,-990r-272,25r202,188r-147,101r-110,-235r-119,233r-149,-100r202,-187r-268,-27r55,-168r238,125r-50,-249r176,2r-45,247r228,-118","w":806},"+":{"d":"617,-422r-201,0r0,205r-119,0r0,-205r-201,0r0,-118r201,0r0,-208r119,0r0,208r201,0r0,118","w":713},",":{"d":"309,-194v0,178,-56,305,-169,382r-49,-44v54,-73,55,-244,35,-387r157,0v17,0,26,16,26,49","w":427},"-":{"d":"608,-413r-503,0r0,-136r503,0r0,136","w":713},".":{"d":"335,-100r-126,135r-28,0r-126,-135r0,-27r126,-131r28,0r126,131r0,27","w":435},"\/":{"d":"659,-1275r-569,1381r-110,0r565,-1381r114,0","w":659},"0":{"d":"698,-922v90,155,94,420,25,610v-38,105,-90,186,-157,241v-76,62,-143,93,-202,93v-106,0,-189,-63,-248,-189v-47,-99,-71,-208,-71,-326v0,-241,73,-412,217,-516v64,-46,119,-70,165,-70v121,0,210,53,271,157xm623,-409v0,-57,-5,-120,-16,-188v-12,-79,-40,-150,-83,-213v-53,-76,-115,-114,-188,-114v-98,0,-147,78,-147,234v0,124,17,235,52,332v49,137,123,205,224,205v105,0,158,-85,158,-256"},"1":{"d":"625,-1057v-25,121,-37,189,-36,206r18,851r-173,0r36,-782v0,-10,-2,-13,-7,-9v-84,75,-191,183,-280,236r-14,-14r36,-244v94,-51,282,-190,347,-264"},"2":{"d":"422,-1073v168,0,304,95,304,256v0,155,-142,362,-426,622r437,0r-48,195r-627,0r38,-144r274,-262v125,-133,188,-236,188,-309v0,-91,-110,-153,-206,-151v-152,2,-152,17,-254,89r-13,-23r51,-213v61,-40,155,-60,282,-60"},"3":{"d":"746,-351v0,114,-54,206,-163,276v-94,61,-201,91,-321,91v-102,0,-178,-20,-227,-61r72,-195v107,65,291,76,420,30v72,-26,108,-68,108,-123v0,-54,-37,-95,-112,-123v-104,-38,-196,-37,-328,-19r60,-185v181,-18,272,-55,272,-111v0,-34,-27,-58,-81,-76v-100,-33,-250,-22,-317,30r-22,-21r64,-201v40,-24,103,-36,189,-36v75,0,140,14,197,42v71,36,107,87,107,154v0,87,-46,164,-138,233v147,53,220,152,220,295"},"4":{"d":"784,-409r-53,196r-89,0r0,213r-144,0r8,-213r-473,0v25,-206,88,-379,187,-520v131,-186,278,-304,440,-355r-18,679r142,0xm517,-811v-66,11,-189,99,-222,147v-50,72,-77,156,-77,255r288,0"},"5":{"d":"429,-668v172,0,304,127,304,299v0,249,-171,385,-427,385v-70,0,-219,-34,-259,-61r73,-195v105,60,295,84,417,22v61,-30,92,-71,92,-124v0,-55,-36,-95,-109,-120v-118,-40,-307,-29,-427,5r54,-591r551,0r-52,202r-399,0r-18,182v52,-3,119,-4,200,-4"},"6":{"d":"463,-679v163,0,297,139,297,301v0,90,-41,178,-124,264v-83,86,-170,130,-259,130v-180,0,-321,-134,-321,-314v0,-70,34,-167,102,-291r251,-460r193,0r-262,383v40,-9,81,-13,123,-13xm618,-293v0,-88,-51,-151,-147,-200v-25,-13,-155,-19,-209,-13v-44,39,-66,88,-66,147v0,59,32,108,95,147v56,34,115,52,178,52v99,0,149,-44,149,-133"},"7":{"d":"782,-1004r-142,251v-155,272,-233,498,-233,677v0,26,1,51,4,76r-173,0v3,-200,21,-240,89,-400v53,-123,136,-268,246,-435r-538,0r61,-213r646,0"},"8":{"d":"460,-1086v123,0,249,95,249,215v0,84,-50,171,-151,262v137,77,206,172,206,287v0,185,-203,342,-393,342v-171,0,-318,-119,-318,-287v0,-118,61,-223,182,-315v-75,-53,-113,-116,-113,-189v0,-168,169,-315,338,-315xm580,-764v2,-99,-82,-165,-183,-165v-95,0,-142,34,-142,101v0,33,33,71,100,113v48,30,95,53,142,70v55,-31,83,-71,83,-119xm198,-366v0,113,139,204,257,204v110,0,165,-32,165,-96v0,-53,-43,-111,-129,-173v-65,-47,-132,-84,-201,-110v-61,46,-92,104,-92,175"},"9":{"d":"440,-1066v179,0,320,132,320,311v0,57,-34,154,-102,293r-226,462r-187,0r250,-387v-225,30,-439,-44,-439,-251v0,-95,44,-196,132,-301v70,-85,154,-127,252,-127xm621,-678v0,-125,-142,-215,-273,-215v-101,0,-152,47,-152,142v0,76,43,133,128,170v69,30,149,45,241,40v37,-47,56,-93,56,-137"},":":{"d":"350,-749r-127,135r-28,0r-126,-135r0,-27r126,-131r28,0r127,131r0,27xm350,-100r-127,135r-28,0r-126,-135r0,-27r126,-131r28,0r127,131r0,27","w":483},";":{"d":"350,-749r-127,135r-28,0r-126,-135r0,-27r126,-131r28,0r127,131r0,27xm304,-194v0,178,-56,305,-168,382r-50,-44v54,-73,55,-244,35,-387r158,0v17,0,25,16,25,49","w":460},"<":{"d":"576,-119r-439,-282r0,-175r439,-310r0,162r-350,226r350,224r0,155","w":713},"=":{"d":"618,-570r-523,0r0,-137r523,0r0,137xm618,-258r-523,0r0,-137r523,0r0,137","w":713},">":{"d":"576,-401r-439,282r0,-155r350,-224r-350,-226r0,-162r439,310r0,175","w":713},"?":{"d":"444,-1043v73,44,102,96,77,178r-50,158v-6,20,-51,68,-136,143v-76,68,-114,130,-114,187r-34,9v-29,-33,-44,-82,-44,-145v0,-62,24,-110,71,-144v13,-9,56,-30,131,-63v47,-21,71,-45,71,-74v0,-37,-60,-73,-180,-110v-120,-37,-181,-75,-181,-114v0,-10,25,-83,74,-218r71,-14v0,53,26,101,85,130xm350,-113r-127,135r-28,0r-126,-135r0,-27r126,-131r28,0r127,131r0,27","w":675},"@":{"d":"684,-14v-110,0,-181,-117,-181,-233v0,-104,35,-219,104,-345v57,-104,130,-203,217,-296v71,-49,130,-73,177,-73v20,0,38,4,53,13v93,0,161,28,202,84r8,-96r136,24r-101,393v-48,187,-72,299,-72,338v0,13,2,22,5,29v-9,27,-11,61,19,61v11,0,26,-4,45,-13v13,6,27,9,40,9v49,0,100,-40,152,-121v61,-27,109,-79,144,-157v49,-109,73,-223,73,-342v-22,-94,-46,-203,-105,-309v-93,-165,-315,-286,-560,-288v-155,43,-285,96,-392,160v-149,51,-237,141,-264,272v-105,144,-157,281,-157,411v-1,34,4,66,4,101v0,146,35,271,105,376v41,145,131,230,272,256v111,67,277,119,461,119v154,0,286,-50,395,-151v141,-70,226,-203,256,-400r124,36v-62,189,-174,337,-330,449v-269,193,-675,220,-977,54v-248,-137,-432,-415,-432,-775v0,-176,41,-339,122,-489v83,-155,201,-274,349,-361v247,-145,575,-175,837,-49v118,57,205,143,264,254v112,209,114,455,22,682v-47,116,-112,207,-193,272v-86,69,-184,104,-293,104v-102,0,-162,-40,-181,-121v11,-43,29,-77,56,-104v-164,151,-299,226,-404,226xm1182,-773v0,-40,-10,-74,-32,-100v-29,-35,-68,-24,-110,1r-8,0v-50,0,-93,45,-128,136v-74,9,-138,79,-192,211v-39,97,-59,174,-59,232v13,19,23,51,30,95v35,-29,65,-37,85,6v75,-37,157,-101,248,-192v27,-59,67,-107,120,-144v31,-97,46,-179,46,-245","w":1886},"A":{"d":"1130,0v-53,50,-162,-11,-180,-60r-107,-295r-515,0r-94,280v-21,65,-64,97,-127,97v-25,0,-47,-7,-65,-22r439,-1147v33,-82,76,-122,140,-121xm821,-438r-245,-675r-229,675r474,0","w":1169},"B":{"d":"628,-829v162,56,296,202,296,403v0,266,-195,447,-463,447v-127,0,-233,-24,-318,-71r0,-966v0,-164,144,-252,320,-252v171,0,321,91,320,249v0,92,-52,155,-155,190xm439,-861v101,2,195,-65,195,-164v0,-117,-63,-176,-188,-176v-94,0,-158,68,-158,157r0,183r151,0xm459,-48v186,2,306,-166,306,-363v0,-225,-132,-369,-349,-370r-129,1r0,698v49,23,106,34,172,34","w":1017},"C":{"d":"1019,-111v-63,64,-236,132,-358,132v-154,0,-282,-57,-385,-171v-109,-121,-163,-280,-163,-477v0,-198,53,-355,155,-474v138,-160,359,-212,582,-127v69,26,120,62,153,104v-37,24,-65,18,-103,-7v-63,-40,-147,-60,-252,-60v-103,0,-191,48,-264,144v-79,105,-119,245,-119,420v0,176,42,317,125,422v76,96,169,144,280,144v97,0,171,-17,226,-48v54,-30,84,-42,123,-2","w":1111},"D":{"d":"143,-1189v61,-41,255,-82,364,-82v161,0,299,52,415,154v135,119,203,283,203,492v0,218,-73,386,-218,504v-117,95,-251,142,-403,142v-101,0,-295,-33,-361,-67r0,-1143xm507,-1193v-59,0,-191,21,-219,46r0,1059v47,25,116,38,207,38v124,0,230,-42,317,-125v107,-103,161,-253,161,-450v0,-174,-48,-314,-143,-420v-89,-99,-196,-148,-323,-148","w":1217},"E":{"d":"143,-1103v-3,-64,47,-139,105,-139r595,0v0,55,-36,82,-108,82r-449,0r0,299r337,0v0,55,-36,82,-107,82r-230,0r0,696r449,0v72,0,108,28,108,83r-593,0v-71,1,-108,-73,-107,-149r0,-954","w":935},"F":{"d":"143,-1103v-3,-64,47,-139,105,-139r595,0v0,55,-36,82,-108,82r-448,0r0,299r336,0v0,55,-36,82,-107,82r-229,0r0,655v1,79,-58,152,-144,142r0,-1121","w":884},"G":{"d":"969,-861v58,-1,115,75,115,139r0,613v-58,65,-252,130,-374,130v-167,0,-307,-55,-418,-164v-119,-117,-179,-274,-179,-469v0,-207,55,-370,161,-491v145,-165,370,-207,608,-126v84,28,142,63,175,104v-37,24,-65,18,-104,-7v-45,-30,-213,-60,-294,-60v-107,0,-197,45,-269,136v-83,105,-125,253,-125,444v0,178,43,317,130,418v81,94,186,141,315,141v78,0,155,-30,231,-91r0,-635r-202,0v-71,0,-107,-27,-107,-82r337,0","w":1227},"H":{"d":"882,-1155v-1,-71,67,-132,144,-123r0,1299v-78,1,-144,-66,-144,-145r0,-655r-595,0r0,655v1,79,-58,152,-144,142r0,-1287v96,0,144,38,144,114r0,294r595,0r0,-294","w":1169},"I":{"d":"656,-1242v0,55,-36,82,-107,82r-114,0r0,1077r114,0v71,0,107,28,107,83r-584,0v0,-55,36,-83,107,-83r114,0r1,-1077r-114,0v-72,0,-108,-27,-108,-82r584,0","w":728},"J":{"d":"135,-1102v0,-93,48,-178,144,-167r0,1068v0,130,-31,230,-94,300v-55,60,-121,90,-206,89v-44,-1,-78,-9,-102,-24v6,-27,18,-42,37,-45v19,1,38,3,57,3v39,0,75,-23,108,-66v37,-51,56,-117,56,-199r0,-959","w":422},"K":{"d":"913,-1269v27,11,41,35,41,71v0,46,-14,79,-43,100v0,-1,3,-2,1,-2v-5,0,-152,104,-441,312r261,387v112,162,221,291,328,387v-20,21,-48,32,-84,32v-66,0,-125,-29,-174,-89v-101,-122,-300,-482,-409,-666r-105,74r0,525v1,91,-55,162,-145,159r0,-1290v97,0,145,40,145,119r0,386","w":1169},"L":{"d":"143,-1270v86,-10,144,42,143,121r0,1066r401,0v72,0,108,28,108,83r-547,0v-57,1,-105,-86,-105,-150r0,-1120","w":836},"M":{"d":"1498,21v-108,15,-179,-31,-198,-129r-195,-979r-237,384v-31,57,-120,55,-154,0r-235,-378r-199,973v-19,99,-89,144,-198,129r298,-1157v21,-83,58,-127,111,-131r300,495r300,-493v57,8,95,46,112,115","w":1582},"N":{"d":"289,-113v3,73,-68,138,-146,134r0,-1239v25,-37,63,-55,116,-55v59,0,100,26,123,78r501,1113r0,-1075v-2,-68,71,-117,143,-115r0,1235v-30,41,-73,62,-129,62v-53,0,-89,-23,-110,-68r-498,-1112r0,1042","w":1169},"O":{"d":"1414,-627v0,185,-58,341,-179,463v-137,139,-283,185,-505,185v-173,0,-319,-61,-438,-185v-119,-124,-179,-278,-179,-463v0,-188,58,-343,178,-463v133,-133,283,-177,506,-177v176,0,322,59,438,177v119,121,179,275,179,463xm1262,-627v0,-167,-51,-304,-153,-411v-96,-101,-211,-151,-346,-151v-135,0,-250,50,-346,151v-102,107,-152,244,-152,411v0,163,50,300,150,408v96,104,213,155,348,155v135,0,252,-51,348,-155v101,-108,151,-245,151,-408","w":1517},"P":{"d":"461,-1268v268,0,463,184,463,450v0,150,-54,271,-163,364v-91,78,-191,117,-298,117v-73,0,-131,-13,-175,-39r0,266v1,76,-63,146,-145,132r0,-1219v85,-47,191,-71,318,-71xm775,-823v0,-195,-130,-376,-316,-376v-67,0,-124,11,-172,34r0,707v41,34,96,51,164,51v76,0,146,-34,210,-102v76,-80,114,-185,114,-314","w":1017},"Q":{"d":"1417,35r-203,-171v-124,118,-271,157,-484,157v-173,0,-319,-61,-438,-185v-119,-124,-179,-278,-179,-463v0,-188,58,-343,178,-463v133,-133,283,-177,506,-177v176,0,322,59,438,177v119,121,179,275,179,463v0,154,-43,291,-130,410r81,68v49,41,73,85,73,130v0,21,-7,39,-21,54xm1262,-627v0,-167,-51,-304,-153,-411v-96,-101,-211,-151,-346,-151v-135,0,-250,50,-346,151v-102,107,-152,244,-152,411v0,163,50,300,150,408v96,104,213,155,348,155v145,0,264,-51,356,-152r-87,-74v-25,-21,-38,-43,-38,-65v0,-29,15,-44,46,-44v20,0,40,9,61,27r83,70v52,-86,78,-194,78,-325","w":1530},"R":{"d":"924,-818v0,214,-125,373,-285,441r315,371v-53,48,-180,34,-216,-19r-215,-319v-88,18,-179,1,-235,-32r0,266v1,76,-63,146,-145,132r0,-1219v85,-47,191,-71,318,-71v268,0,463,184,463,450xm775,-823v0,-195,-130,-376,-316,-376v-66,0,-123,11,-172,34r0,707v41,34,96,51,164,51v76,0,146,-34,210,-102v76,-80,114,-185,114,-314","w":1046},"S":{"d":"441,-1185v-124,-12,-203,85,-203,197v0,53,20,104,56,154v53,72,147,118,242,157v174,71,260,196,260,366v0,198,-170,334,-373,332v-147,-2,-295,-80,-351,-177v66,-22,75,-11,142,31v123,78,244,103,348,-1v52,-51,78,-110,78,-179v0,-148,-69,-252,-206,-311r-86,-37v-78,-33,-141,-81,-190,-143v-49,-62,-74,-124,-74,-186v0,-157,160,-286,322,-286v165,0,285,64,360,193v-17,7,-33,11,-48,11v-27,0,-65,-21,-114,-64v-37,-33,-92,-50,-163,-57","w":878},"T":{"d":"534,-99v1,74,-62,130,-142,121r1,-1182r-224,0v-72,0,-108,-27,-108,-82r794,0v0,55,-36,82,-108,82r-213,0r0,1061","w":916},"U":{"d":"882,-1127v-1,-88,53,-151,144,-142r0,767v0,349,-147,523,-442,523v-294,0,-441,-164,-441,-493r0,-799v80,-18,145,58,145,133r0,702v0,123,29,220,86,291v53,67,124,100,211,100v89,0,160,-37,215,-111v55,-74,82,-176,82,-305r0,-666","w":1169},"V":{"d":"1033,-1263r-313,1190v-24,89,-73,129,-157,108r-491,-1292v15,-11,34,-16,56,-16v73,0,121,39,146,116r346,1066r223,-1043v24,-113,86,-159,190,-129","w":1105},"W":{"d":"1495,-1262r-302,1182v-16,63,-51,96,-105,101r-286,-466r-314,466v-56,-8,-93,-47,-112,-117r-304,-1170v101,-25,172,21,192,122r198,1000r259,-368v45,-66,123,-65,165,4r224,364r187,-989v14,-88,96,-158,198,-129","w":1566},"X":{"d":"944,-1269v15,13,23,33,23,59v0,37,-14,75,-41,114r-319,458r348,456v46,57,36,171,-23,203r-424,-551r-377,551v-20,-11,-30,-29,-30,-54v0,-32,15,-69,44,-112r314,-455r-356,-478v-45,-61,-29,-148,29,-191r424,562","w":1051},"Y":{"d":"494,-142v1,83,-56,179,-143,163r1,-754r-249,-331v-45,-57,-42,-164,15,-205r324,432r302,-432v15,13,23,33,23,59v0,36,-14,74,-41,114r-232,342r0,612","w":839},"Z":{"d":"800,0r-672,0v-35,-17,-52,-42,-52,-74v0,-29,23,-84,68,-163r519,-923r-484,0v-71,0,-107,-27,-107,-82r673,0v63,27,62,110,28,170r-566,989r486,0v71,0,107,28,107,83","w":872},"[":{"d":"458,186r97,-4r0,79r-353,0v-25,0,-38,-14,-38,-41r0,-1449v0,-27,13,-41,38,-41r353,0r0,80r-97,-4v-81,0,-122,29,-122,86r0,1208v0,57,41,89,122,86","w":637},"\\":{"d":"737,137v5,10,5,27,-8,26v-10,0,-32,-8,-66,-24v-39,-19,-62,-36,-69,-51r-574,-1227v-5,-12,-5,-27,10,-27v13,0,36,9,68,28v35,21,56,40,64,57","w":801},"]":{"d":"178,-1194r-96,4r0,-80r353,0v25,0,38,14,38,41r0,1449v0,27,-13,41,-38,41r-353,0r0,-79r96,4v81,0,122,-29,122,-86r0,-1208v0,-57,-41,-89,-122,-86","w":637},"^":{"d":"768,-436r-160,0r-208,-508r-232,508r-141,0r317,-701r107,0","w":788},"_":{"d":"1042,258r-1042,0r-8,-130r1044,0","w":1032},"`":{"d":"447,-1045r-55,9r-274,-354r223,0","w":682},"a":{"d":"401,-55v-109,-1,-216,-62,-216,-172v0,-69,30,-126,91,-170v43,-31,110,-60,200,-85v36,-10,51,-40,49,-88v-134,35,-229,67,-286,97v-121,65,-180,141,-178,251v2,153,151,243,317,243v127,0,223,-49,287,-146v13,42,43,90,90,145v64,-26,84,-92,55,-161v-19,-43,-28,-97,-28,-162r0,-274v0,-208,-111,-312,-332,-312v-135,0,-255,38,-360,115v23,45,76,47,120,19v63,-41,134,-60,212,-60v145,0,230,93,230,239r0,294v4,134,-114,230,-251,227","w":895},"b":{"d":"238,-726v42,-84,139,-162,254,-163v95,0,173,40,240,115v135,152,138,478,15,649v-69,96,-155,146,-265,146v-99,0,-183,-55,-250,-164v1,90,-44,171,-130,164r0,-1290v91,0,136,56,136,168r0,375xm466,-807v-135,0,-237,158,-231,307r0,123v0,87,21,160,62,221v42,63,93,95,155,95v74,0,132,-46,179,-136v108,-205,65,-610,-165,-610","w":920},"c":{"d":"82,-437v0,-255,150,-453,394,-452v79,0,162,35,249,106v-14,30,-62,36,-94,18v-59,-35,-108,-52,-147,-52v-75,0,-134,38,-185,109v-95,134,-93,408,-5,545v73,114,197,142,323,75v42,-23,82,-25,104,16v-73,62,-154,93,-245,93v-238,2,-394,-208,-394,-458","w":776},"d":{"d":"428,-889v114,0,213,79,254,163r0,-388v-2,-86,55,-155,136,-155r0,1290v-87,8,-130,-77,-130,-164v-67,109,-151,164,-250,164v-110,0,-196,-50,-265,-146v-123,-171,-120,-497,15,-649v67,-75,145,-115,240,-115xm685,-500v6,-149,-96,-306,-230,-307v-69,0,-123,33,-163,99v-81,130,-77,369,-3,512v47,91,105,137,179,137v62,0,114,-32,156,-96v41,-61,61,-135,61,-222r0,-123","w":920},"e":{"d":"474,-889v199,0,356,105,357,289v0,102,-45,185,-134,249v-77,55,-169,87,-276,94v0,-46,19,-74,58,-85v141,-37,211,-117,211,-242v1,-146,-90,-234,-237,-233v-72,0,-128,39,-171,116v-73,130,-79,396,1,525v51,82,123,124,220,124v65,0,125,-19,182,-56v42,-28,93,-37,123,3v-65,62,-203,125,-321,126v-251,3,-405,-190,-405,-449v0,-251,152,-461,392,-461","w":923},"f":{"d":"160,-1008v0,-143,102,-273,257,-257v32,3,66,16,101,38v-5,26,-19,39,-41,39v-19,0,-57,-13,-74,-13v-59,1,-110,70,-110,136r0,204r137,0v15,36,-27,74,-58,74r-79,0r0,654v2,90,-47,166,-133,154r0,-808r-114,0v-16,-40,7,-74,57,-74r57,0r0,-147","w":515},"g":{"d":"682,-128v-40,78,-129,148,-237,149v-97,0,-178,-43,-250,-123v-141,-157,-150,-477,-15,-647v72,-90,160,-138,271,-138v93,0,172,53,237,159v9,-107,29,-156,130,-160r0,892v6,237,-213,410,-464,345v-82,-21,-152,-66,-210,-134v37,-38,70,-29,116,3v55,39,111,60,188,61v146,2,237,-107,234,-259r0,-148xm682,-523v5,-139,-90,-284,-215,-285v-80,0,-141,43,-185,129v-72,140,-70,380,12,509v78,123,207,147,310,41v51,-53,78,-117,78,-194r0,-200","w":919},"h":{"d":"532,-889v192,0,304,126,304,323r0,587v-74,2,-135,-64,-135,-138r0,-456v3,-134,-82,-234,-210,-234v-122,0,-256,149,-256,277r0,406v0,104,-43,153,-133,145r0,-1290v78,-15,136,46,136,116r1,442v72,-119,170,-178,293,-178","w":938},"i":{"d":"190,-1173v47,0,88,40,88,87v0,48,-41,88,-88,88v-47,0,-88,-40,-88,-88v0,-47,41,-87,88,-87xm256,21v-90,0,-135,-54,-135,-163r0,-665v0,-55,22,-82,67,-82v45,0,68,27,68,82r0,828","w":380},"j":{"d":"12,297v69,2,131,-89,131,-164r0,-883v0,-104,45,-150,134,-135r0,961v3,145,-112,293,-257,287v-44,-2,-78,-9,-102,-24v6,-27,18,-42,37,-45v19,1,38,3,57,3","w":379},"k":{"d":"102,-1269v77,-1,135,58,135,135r0,687r491,-442v62,18,54,134,10,170r-309,247v158,233,284,386,377,458v-22,24,-49,36,-81,36v-51,0,-100,-28,-146,-83v-69,-82,-141,-202,-216,-361r-126,100r0,184v0,106,-45,159,-135,159r0,-1290","w":864},"l":{"d":"239,21r0,-1122v0,-112,-46,-168,-137,-168r0,1133v0,105,46,157,137,157","w":342},"m":{"d":"998,-889v145,0,243,104,243,249r0,661v-83,1,-135,-56,-134,-138r-1,-495v0,-130,-55,-195,-164,-195v-87,0,-185,106,-201,181r0,505v0,95,-45,142,-134,142r0,-640v0,-125,-55,-188,-165,-188v-90,0,-207,132,-207,219r0,467v0,93,-44,141,-133,144r0,-912v84,-14,137,50,136,130v75,-87,162,-130,260,-130v122,0,199,55,231,165v74,-110,164,-165,269,-165","w":1344},"n":{"d":"532,-889v192,0,304,126,304,323r0,587v-81,1,-135,-60,-135,-142r0,-452v3,-134,-82,-234,-210,-234v-122,0,-256,149,-256,277r0,409v0,95,-44,142,-133,142r0,-910v78,-15,136,46,136,116r1,62v72,-119,170,-178,293,-178","w":938},"o":{"d":"499,-889v255,0,421,198,421,456v0,135,-42,245,-126,331v-81,82,-178,123,-293,123v-242,0,-419,-201,-419,-448v0,-255,168,-462,417,-462xm774,-428v0,-107,-22,-196,-66,-268v-50,-83,-121,-125,-212,-125v-90,0,-158,43,-208,127v-84,139,-82,413,12,539v52,69,116,105,199,105v76,0,141,-36,195,-108v54,-72,80,-162,80,-270","w":1002},"p":{"d":"833,-441v0,141,-40,255,-120,344v-71,79,-152,118,-244,118v-102,0,-181,-53,-236,-160r0,333v0,112,-45,168,-136,168r0,-1250v91,-3,133,49,134,157v65,-105,144,-158,237,-158v111,0,200,46,269,138v64,85,96,188,96,310xm686,-430v0,-111,-18,-199,-54,-266v-42,-77,-104,-115,-186,-115v-61,0,-113,34,-157,103v-40,63,-60,131,-60,206r0,159v0,79,26,147,74,205v95,114,230,101,311,-21v47,-71,72,-161,72,-271","w":915},"q":{"d":"688,-727v-3,-93,39,-169,130,-161r0,1251v-81,2,-136,-54,-136,-134r0,-371v-42,84,-140,163,-254,163v-94,0,-173,-40,-240,-116v-135,-152,-138,-479,-15,-649v69,-95,155,-145,265,-145v100,0,183,54,250,162xm455,-61v134,0,236,-158,230,-307r0,-125v0,-87,-20,-160,-61,-221v-42,-63,-94,-95,-156,-95v-74,0,-132,46,-179,136v-109,206,-64,613,166,612","w":920},"r":{"d":"266,-724v35,-89,132,-167,252,-164v21,37,-17,80,-50,85v-112,16,-186,136,-186,268r0,424v0,88,-46,132,-138,132r0,-563v0,-77,-4,-137,-16,-180v-21,-75,26,-155,87,-166v34,62,51,117,51,164","w":544},"s":{"d":"420,-806v-104,-6,-180,51,-180,145v0,73,53,122,160,149r98,24v74,19,134,50,179,95v52,52,75,106,73,182v-5,214,-336,288,-531,190v-64,-31,-106,-74,-127,-127v32,-9,59,-9,82,10v55,47,129,84,226,82v108,-1,204,-57,201,-168v-3,-105,-73,-171,-164,-195r-96,-25v-164,-41,-246,-112,-246,-213v-1,-221,323,-289,501,-180v54,33,96,74,123,127v-11,4,-21,6,-30,6v-14,0,-48,-17,-102,-51v-49,-31,-104,-48,-167,-51","w":846},"t":{"d":"382,-44v17,1,55,-13,75,-13v21,0,35,13,41,40v-45,26,-74,37,-126,38v-135,3,-233,-123,-233,-258r0,-555r-57,0v-50,3,-73,-33,-57,-74r114,0r0,-403v7,-2,14,-3,21,-3v67,1,112,81,112,157r0,249r80,0v32,0,72,38,58,74r-138,0r0,613v-3,66,50,134,110,135","w":522},"u":{"d":"462,-45v128,0,210,-129,210,-266r0,-432v0,-102,44,-150,133,-142r0,542v4,211,-138,366,-344,364v-91,0,-173,-34,-245,-103v-76,-72,-114,-159,-114,-261r0,-546v78,-18,136,59,135,133r0,439v-6,136,101,272,225,272","w":907},"v":{"d":"756,-885r-282,906v-90,17,-140,-25,-169,-120r-244,-789v89,-14,142,22,165,106r183,683r167,-658v29,-105,80,-148,180,-128","w":818},"w":{"d":"1319,-888r-244,789v-31,94,-80,137,-171,120r-214,-517r-214,517v-91,17,-142,-25,-171,-120r-244,-789v90,-14,144,23,167,106r181,683r183,-418v45,-116,147,-112,196,0r183,418r178,-683v21,-83,79,-120,170,-106","w":1380},"x":{"d":"671,-888v16,13,24,34,24,61v0,38,-14,75,-41,111r-205,267r218,281v45,53,46,155,-12,189r-295,-374r-288,374v-21,-11,-31,-29,-31,-54v0,-32,15,-67,45,-106r217,-279r-222,-282v-47,-56,-45,-145,12,-188r300,376","w":741},"y":{"d":"777,-876r-169,616v-58,211,-117,362,-177,451v-71,105,-166,167,-285,186v-6,-55,23,-81,81,-102v62,-23,137,-139,158,-217r-324,-946v99,-12,155,31,183,128r191,670v9,-32,62,-254,167,-664v29,-113,80,-160,175,-122","w":838},"z":{"d":"715,0r-602,0v-66,-58,-59,-133,-2,-201r485,-588r-427,0v-72,0,-108,-24,-108,-72r607,0v55,32,59,121,18,170r-510,618r431,0v72,0,108,24,108,73","w":776},"{":{"d":"359,-954r6,157v0,95,-25,161,-76,197v-27,19,-87,49,-178,90r0,5v85,33,143,63,175,89v53,43,80,101,80,173r0,235v0,73,33,128,98,164v21,11,71,23,149,34r0,76v-126,0,-227,-20,-304,-60v-79,-41,-119,-109,-119,-204r0,-313v0,-53,-51,-105,-154,-157r0,-80v103,-60,154,-121,154,-183r0,-284v0,-107,47,-180,142,-221v59,-26,153,-41,281,-46r0,76v-58,10,-121,18,-163,43v-61,36,-95,106,-91,209","w":695},"|":{"d":"296,261r-132,0r0,-1531r132,0r0,1531","w":460},"}":{"d":"331,-797r5,-157v0,-103,-30,-173,-91,-209v-21,-12,-75,-26,-163,-43r0,-76v128,5,222,20,281,46v95,41,142,114,142,221r0,284v0,62,51,123,154,183r0,80v-103,52,-154,104,-154,157r0,313v0,95,-40,163,-119,204v-77,40,-178,60,-304,60r0,-76v36,-4,86,-15,149,-34v65,-36,98,-91,98,-164r0,-235v0,-72,27,-130,80,-173v32,-26,90,-56,175,-89r0,-5v-41,-17,-102,-43,-178,-90v-52,-32,-78,-102,-75,-197","w":695},"~":{"d":"1081,-645v-90,158,-194,237,-311,237v-90,0,-172,-42,-238,-75v-83,-42,-148,-70,-202,-70v-47,0,-89,17,-127,51v-26,23,-62,67,-107,131r-76,-100v82,-145,184,-217,305,-217v49,0,127,31,240,76v112,44,184,58,209,58v77,0,147,-52,209,-155","w":1112},"\u00a2":{"d":"297,-48v-110,-100,-168,-218,-168,-404v0,-169,51,-300,157,-390v98,-83,192,-117,334,-101r140,-383r72,0r-145,402v67,30,113,59,138,87v32,36,48,74,48,115v0,57,-31,85,-94,85v-72,0,-104,-39,-112,-120v-3,-21,-8,-42,-17,-65r-228,631v58,41,112,61,163,61v86,0,153,-29,202,-86v21,-25,49,-74,83,-146r30,13v-31,125,-86,222,-163,292v-97,88,-249,105,-383,46r-142,390r-70,0xm593,-865v-86,-31,-173,1,-222,62v-54,67,-82,156,-82,268v0,91,27,186,81,285","w":1024},"\u00a3":{"d":"205,-758v-1,-218,182,-420,404,-420v70,0,132,22,186,66r-95,147v-71,-45,-136,-67,-196,-67v-95,0,-142,53,-142,160v0,21,3,82,9,182r168,0r-58,147r-106,0v-5,165,-37,287,-94,367r518,0r-62,176r-671,0r69,-176r60,0v21,-109,22,-238,18,-365r-109,0r56,-147r47,0v-2,-17,-2,-47,-2,-70","w":907},"\u00a5":{"d":"1023,-352r-426,0v0,72,0,220,11,251v17,50,82,64,160,60r0,41r-515,0r0,-41v90,5,157,-18,169,-83v4,-24,4,-172,4,-228r-424,0r0,-73r424,0r0,-144r-15,-36r-409,0r0,-73r377,0r-213,-496v-21,-49,-40,-83,-59,-102v-26,-27,-61,-41,-105,-42r0,-38r442,0r0,38v-81,5,-121,26,-121,62v0,10,6,30,18,59r214,519r213,-504v20,-56,35,-78,0,-116v-11,-12,-56,-17,-91,-20r0,-38r346,0r0,38v-39,0,-68,8,-87,23v-29,24,-57,68,-86,132r-214,485r387,0r0,73r-419,0r-7,16r0,164r426,0r0,73","w":1024},"\u00a8":{"d":"518,-1337v58,0,108,51,108,109v0,58,-50,108,-108,108v-58,0,-109,-50,-109,-108v0,-58,51,-109,109,-109xm165,-1337v60,0,109,49,109,109v0,58,-50,108,-108,108v-58,0,-109,-50,-109,-108v0,-58,50,-109,108,-109","w":682},"\u00a9":{"d":"1393,-1034v126,223,127,495,0,712v-64,111,-152,197,-262,259v-223,126,-494,125,-711,-1v-110,-63,-195,-151,-258,-262v-125,-223,-124,-495,4,-712v65,-112,155,-197,266,-258v222,-122,485,-120,701,3v112,64,198,150,260,259xm1342,-357v112,-203,112,-451,-4,-649v-59,-102,-139,-180,-242,-236v-203,-113,-443,-112,-641,3v-103,59,-181,138,-237,236v-116,204,-113,451,0,652v100,177,308,321,560,321v258,0,465,-147,564,-327xm486,-701v0,244,103,413,331,413v130,0,234,-54,312,-162r37,19v-93,135,-220,203,-383,203v-256,0,-463,-187,-463,-444v0,-271,223,-468,498,-463v47,0,109,12,185,38v47,16,66,8,86,-37r40,0r20,280r-39,0v-47,-157,-148,-236,-303,-236v-211,0,-321,167,-321,389","w":1556},"\u00ab":{"d":"960,8r-58,0r-394,-472r394,-470r58,0r-243,470xm508,8r-57,0r-387,-472r387,-470r57,0r-244,470","w":1024},"\u00ae":{"d":"1393,-1034v126,223,127,495,0,712v-64,111,-152,197,-262,259v-223,126,-494,125,-711,-1v-110,-63,-195,-151,-258,-262v-125,-223,-124,-495,4,-712v65,-112,155,-197,266,-258v222,-122,485,-120,701,3v112,64,198,150,260,259xm1342,-357v112,-203,112,-451,-4,-649v-59,-102,-139,-180,-242,-236v-203,-113,-443,-112,-641,3v-103,59,-181,138,-237,236v-116,204,-113,451,0,652v100,177,308,321,560,321v258,0,465,-147,564,-327xm772,-1114v158,-2,297,77,297,224v0,109,-74,183,-222,222r209,298v25,35,47,60,68,73v12,8,30,13,53,15r0,33r-184,0r-294,-405r-76,0r0,309v7,42,47,63,118,63r0,33r-367,0r0,-33v52,0,84,-15,97,-45v5,-11,7,-42,7,-93r0,-523v0,-51,-1,-80,-3,-87v-9,-32,-38,-48,-89,-48r0,-36r386,0xm908,-879v4,-142,-143,-229,-285,-175r0,357v130,0,215,-29,256,-88v19,-28,29,-59,29,-94","w":1556},"\u00b4":{"d":"565,-1390r-295,345r-34,0r105,-345r224,0","w":682},"\u00b8":{"d":"356,234v-1,-50,-49,-84,-106,-72r111,-178r60,0r-50,79v83,21,125,70,125,146v0,107,-103,183,-215,181v-25,0,-56,-2,-94,-7r0,-43v19,3,35,4,48,4v61,1,123,-48,121,-110","w":682},"\u00bb":{"d":"960,-462r-387,470r-57,0r244,-470r-244,-472r57,0xm516,-462r-394,470r-58,0r243,-470r-243,-472r58,0","w":1024},"\u02c6":{"d":"768,436r-160,0r-208,508r-232,-508r-141,0r317,701r107,0","w":788},"\u02da":{"d":"-1,-747v172,0,314,142,314,314v0,172,-142,311,-314,311v-170,0,-313,-141,-313,-311v0,-172,141,-314,313,-314xm3,-202v129,0,232,-102,232,-231v0,-131,-101,-232,-232,-232v-129,0,-231,103,-231,232v0,129,102,231,231,231","w":398},"\u02dc":{"d":"531,894v-90,-158,-194,-237,-311,-237v-45,0,-90,10,-134,29r-104,46v-81,47,-148,70,-202,70v-47,0,-89,-17,-127,-51v-26,-23,-62,-67,-107,-131r-76,100v82,145,184,217,305,217v49,0,129,-25,240,-76v114,-39,184,-58,209,-58v77,0,147,52,209,155","w":398},"\u05b0":{"d":"147,279r-147,0r0,-146r147,0r0,146xm147,510r-147,0r0,-145r147,0r0,145","w":147},"\u05b1":{"d":"651,279r-147,0r0,-146r147,0r0,146xm651,510r-147,0r0,-145r147,0r0,145xm399,279r-147,0r0,-146r147,0r0,146xm147,279r-147,0r0,-146r147,0r0,146xm274,510r-147,0r0,-145r147,0r0,145","w":651},"\u05b2":{"d":"635,279r-148,0r0,-146r148,0r0,146xm635,510r-148,0r0,-145r148,0r0,145xm399,256r-399,0r0,-123r399,0r0,123","w":635},"\u05b3":{"d":"635,279r-148,0r0,-146r148,0r0,146xm635,510r-148,0r0,-145r148,0r0,145xm399,256r-145,0r8,207r-121,0r6,-207r-147,0r0,-123r399,0r0,123","w":635},"\u05b4":{"d":"147,279r-147,0r0,-146r147,0r0,146","w":147},"\u05b5":{"d":"399,279r-147,0r0,-146r147,0r0,146xm147,279r-147,0r0,-146r147,0r0,146","w":399},"\u05b6":{"d":"399,279r-147,0r0,-146r147,0r0,146xm147,279r-147,0r0,-146r147,0r0,146xm274,510r-147,0r0,-145r147,0r0,145","w":399},"\u05b7":{"d":"399,256r-399,0r0,-123r399,0r0,123","w":399},"\u05b8":{"d":"399,256r-145,0r8,207r-121,0r6,-207r-147,0r0,-123r399,0r0,123","w":399},"\u05b9":{"d":"147,-1135r-147,0r0,-145r147,0r0,145","w":147},"\u05bb":{"d":"651,510r-147,0r0,-145r147,0r0,145xm399,395r-147,0r0,-145r147,0r0,145xm147,279r-147,0r0,-146r147,0r0,146","w":651},"\u05bc":{"d":"147,-442r-147,0r0,-146r147,0r0,146","w":147},"\u05bd":{"d":"92,393r-92,0r0,-260r92,0r0,260","w":92},"\u05be":{"d":"464,-996r-46,208r-358,0r45,-208r359,0","w":533},"\u05bf":{"d":"252,-1333v-1,32,8,70,-28,70r-447,0v-35,3,-26,-39,-27,-70v0,-19,9,-28,27,-28r447,0v19,0,28,9,28,28","w":1},"\u05c0":{"d":"296,261r-132,0r0,-1531r132,0r0,1531","w":460},"\u05c1":{"d":"999,-1135r-147,0r0,-145r147,0r0,145","w":1247},"\u05c2":{"d":"270,-1135r-147,0r0,-145r147,0r0,145","w":1247},"\u05c3":{"d":"350,-749r-127,135r-28,0r-126,-135r0,-27r126,-131r28,0r127,131r0,27xm350,-100r-127,135r-28,0r-126,-135r0,-27r126,-131r28,0r127,131r0,27","w":483},"\u05d0":{"d":"177,-394v0,-114,63,-269,121,-334v-40,-27,-109,-67,-207,-119v40,-106,52,-132,34,-229r75,-22v21,57,59,104,114,143v93,65,229,168,409,307v34,-124,51,-234,51,-330v0,-36,42,-54,127,-54v62,0,114,4,157,12r-49,227r-60,-3v-50,0,-88,24,-114,73v-8,16,-23,63,-45,140v115,111,214,247,295,410r-73,194r-42,0v-81,-241,-391,-576,-606,-705v-101,164,-67,357,43,511r-74,173r-309,0r62,-171r112,-17v-14,-47,-21,-116,-21,-206","w":1139},"\u05d1":{"d":"513,-997v187,-2,299,120,299,307v0,135,-23,339,-35,481r139,0r-69,209r-804,0r66,-209r577,0v-14,-247,-22,-377,-23,-388v-11,-84,-38,-137,-79,-161v-77,-46,-364,-28,-515,-30v25,-93,38,-152,38,-175v0,-35,-7,-69,-20,-102r72,-28v27,64,80,96,159,96r195,0","w":933},"\u05d2":{"d":"578,-830v0,51,-14,213,-14,264v0,169,54,402,84,566r-143,0v-7,-104,-21,-224,-42,-359r-14,0r-128,208v-29,47,-51,78,-64,93v-51,61,-140,67,-222,93r-15,-14r61,-221r85,-30v48,-16,105,-57,171,-123v70,-70,104,-127,104,-170v0,-118,-9,-192,-27,-223v-29,-47,-112,-48,-210,-44v-40,2,-73,1,-100,1v31,-153,47,-161,9,-272r68,-28v18,48,49,77,92,87v12,3,57,4,136,4v113,0,169,56,169,168","w":684},"\u05d3":{"d":"864,-788r-83,-5v-33,0,-50,16,-50,49v0,5,8,253,23,744r-180,0r33,-788r-562,0v26,-93,39,-152,39,-175v0,-35,-7,-69,-20,-102r72,-28v26,64,79,96,158,96r362,0v77,0,157,-9,242,-26r17,18","w":967},"\u05d4":{"d":"977,-941v-41,56,-62,131,-62,226v0,21,10,259,31,715r-179,0r25,-788r-723,0v25,-93,38,-152,38,-175v0,-35,-7,-69,-20,-102r72,-28v27,64,80,96,159,96r637,0xm276,0r-174,0v2,-107,11,-267,26,-480r139,-33v-13,141,-10,376,9,513","w":1074},"\u05d5":{"d":"319,-642v-2,-113,-43,-149,-160,-149r-110,2v31,-155,47,-160,9,-272r68,-28v21,43,45,70,74,81v17,7,55,10,112,10v87,0,131,46,133,138r19,860r-163,0v12,-423,18,-637,18,-642","w":558},"\u05d6":{"d":"537,-958r-56,170v-62,0,-97,2,-104,6v-16,9,-24,40,-24,93v0,19,2,57,5,112r38,577r-172,0r0,-513v0,-97,15,-189,46,-276r-221,0v31,-153,47,-161,9,-272r68,-28v23,61,64,91,125,91r258,0","w":618},"\u05d7":{"d":"1027,-941v-50,90,-59,110,-60,244v0,21,1,46,3,75r40,622r-181,0r16,-788r-557,0r0,788r-173,0r39,-762v1,-101,-37,-208,-59,-295r83,-21v26,54,72,81,138,81r685,0","w":1129},"\u05d8":{"d":"292,-617v0,147,73,350,144,434v107,-9,172,-15,196,-19v201,-33,301,-152,302,-382v0,-141,-66,-211,-198,-211v-71,0,-127,29,-168,87r-45,-32v40,-114,68,-180,83,-199v34,-43,98,-65,192,-65v186,0,279,92,279,275v0,176,-63,390,-132,508v-68,116,-176,188,-328,214r-268,45v-94,-133,-179,-415,-179,-632v-1,-78,11,-133,28,-184v-7,-23,-126,-10,-149,-11v28,-154,43,-161,7,-273r71,-28v14,49,48,78,103,89v13,3,62,4,147,4r24,54v-54,63,-109,215,-109,326","w":1150},"\u05d9":{"d":"438,-840v0,116,-22,257,-66,422r-145,36r-13,-15v65,-181,98,-290,98,-327v0,-43,-27,-65,-81,-65r-182,0v31,-156,48,-158,7,-272r70,-28v21,50,60,81,116,89r133,19v42,18,63,65,63,141","w":511},"\u05da":{"d":"646,-619v0,-130,-37,-169,-167,-170r-432,0v38,-136,54,-164,15,-272r68,-28v22,61,64,91,125,91r312,0v146,0,219,76,219,229v0,126,-24,528,-24,654v0,191,7,332,20,421r-171,50","w":873},"\u05db":{"d":"290,-997r168,-4v148,0,245,35,298,101v138,173,86,632,-33,784v-39,50,-60,78,-64,81v-24,23,-55,35,-94,35r-505,0r83,-209r430,0v96,0,144,-53,144,-158v0,-132,-9,-224,-26,-276v-32,-97,-99,-145,-202,-145r-401,0v31,-153,47,-161,9,-272r68,-29v23,61,64,93,125,92","w":909},"\u05dc":{"d":"191,-1070v3,67,5,73,77,73r376,0v117,0,175,67,175,200v0,182,-50,349,-150,501v-100,152,-233,267,-400,343r-31,0r21,-216v101,-42,196,-113,285,-214v97,-111,146,-216,146,-315v0,-60,-33,-90,-98,-90r-413,0v-47,0,-79,-16,-94,-48v-9,-18,-16,-56,-20,-113r-32,-435r163,-43r17,14v-15,222,-22,336,-22,343","w":888},"\u05dd":{"d":"997,0r-871,0r0,-722v0,-127,-20,-238,-59,-335r83,-21v26,54,72,81,138,81r479,0v153,0,230,84,230,251r0,746xm879,-535v-3,-204,-30,-255,-226,-255r-406,0r0,588r632,0r0,-333","w":1093},"\u05de":{"d":"1084,-209r-69,209r-582,0r83,-209r452,0r-46,-328v-27,-188,-83,-277,-280,-277v-130,0,-224,124,-282,372r-104,442r-173,0r106,-318v56,-173,84,-272,84,-297v0,-23,-8,-58,-20,-107v-15,-58,-81,-76,-164,-68v-19,1,-33,2,-42,2v31,-153,47,-161,9,-272r69,-29v19,55,67,86,143,94v55,6,87,37,97,94r27,163v71,-115,111,-177,118,-186v53,-63,116,-94,188,-94r63,0v193,0,295,131,306,393","w":1153},"\u05df":{"d":"286,-994r103,-3r35,43v-38,63,-47,163,-44,270r32,978r-162,67r7,-1099v0,-29,-31,-47,-94,-52v5,1,-34,1,-118,1v32,-154,48,-160,10,-272r68,-28v23,63,78,97,163,95","w":511},"\u05e0":{"d":"162,-1089v32,74,59,92,169,91v125,0,188,74,188,221r0,287v0,237,-30,401,-89,490r-395,0r65,-209r303,0v0,-143,-9,-297,-28,-461v-9,-79,-47,-119,-113,-119r-177,0v28,-134,42,-166,5,-269","w":610},"\u05e1":{"d":"1060,-738v0,168,-112,493,-191,589v-67,82,-154,134,-268,149r-299,39v-93,-132,-154,-384,-184,-757v-12,-161,-23,-248,-63,-351r81,-29v40,67,84,100,132,100r518,0v183,0,274,87,274,260xm233,-789v13,183,80,510,152,607r193,-14v227,-15,340,-151,340,-408v1,-115,-72,-185,-188,-185r-497,0","w":1132},"\u05e2":{"d":"285,-995r94,-3r35,46v-49,65,-50,187,-25,284r117,460v177,-56,231,-118,265,-315v23,-133,33,-204,33,-214v0,-37,-38,-59,-114,-56r-89,4v34,-124,51,-152,30,-247r64,-25v19,42,51,63,96,63r155,0r27,42v-45,140,-82,386,-111,563v-22,137,-68,231,-140,283v-67,48,-283,119,-648,212r30,-214v99,-19,198,-42,297,-68r-157,-547v-14,-55,-76,-71,-154,-63v-18,1,-31,1,-39,1v31,-153,47,-161,9,-272r68,-28v23,63,76,97,157,94","w":1037},"\u05e3":{"d":"554,-997v180,-1,256,57,260,228v2,126,-24,528,-24,654v0,191,7,332,20,421r-171,50r35,-980v-2,-128,-38,-164,-167,-164r-285,0r0,141v0,49,23,74,69,74r144,0r-52,183r-183,0v-79,0,-118,-37,-118,-112v0,-67,43,-274,43,-341v0,-73,-12,-151,-36,-235r78,-19v28,69,104,107,227,104","w":901},"\u05e4":{"d":"90,-519v0,-63,43,-262,43,-325v0,-71,-12,-149,-36,-234r78,-19v27,67,84,100,171,100r301,0v106,0,181,43,222,130v72,154,52,448,-7,627v-52,159,-123,240,-218,240r-566,0r49,-205r515,0v114,-3,146,-49,146,-171v0,-127,-6,-215,-18,-264v-27,-108,-84,-162,-173,-162r-367,0r0,137v0,52,35,81,104,78r91,-4r-34,183r-183,0v-79,0,-118,-37,-118,-111","w":984},"\u05e5":{"d":"610,-856r-5,-90v0,-33,17,-55,51,-60v50,-7,240,-2,266,12r-39,223v-71,0,-107,0,-107,-1v-39,4,-62,15,-69,34v-41,116,-73,191,-96,226v-40,60,-104,111,-192,153r22,665r-161,52r0,-1018v-3,-98,-31,-134,-132,-132r-103,2v29,-80,43,-136,43,-169v0,-37,-6,-71,-19,-101r68,-28v27,59,67,89,122,89v81,0,124,46,129,139r24,396v71,-49,87,-57,129,-124v47,-75,69,-165,69,-268","w":982},"\u05e6":{"d":"684,-1002v75,0,198,-5,248,8r-36,212r-107,0v-37,0,-63,14,-72,44v-20,64,-49,161,-93,288v44,55,113,136,209,240v17,18,26,28,26,33v0,6,-31,65,-93,177r-701,0r49,-205r508,0r-294,-457v-72,-100,-107,-125,-272,-126v43,-110,57,-173,24,-270r68,-29v20,46,50,74,90,84v15,4,57,6,128,6r25,45v-49,114,-26,164,46,280v13,19,52,72,119,157v40,-98,46,-280,58,-418v3,-32,35,-69,70,-69","w":1005},"\u05e7":{"d":"991,-741v0,170,-47,319,-139,449v-82,116,-267,274,-401,331r-18,0r28,-242v93,-34,181,-89,264,-166v97,-90,146,-178,146,-263v0,-104,-54,-156,-161,-156r-643,0v28,-78,42,-134,42,-169v0,-41,-6,-77,-18,-108r71,-28v27,64,80,96,159,96r438,0v155,0,232,85,232,256xm290,301r-176,65r17,-929r138,-34","w":1056},"\u05e8":{"d":"527,-1002v197,1,258,97,258,300r0,702r-158,0v15,-377,23,-572,23,-583v-3,-158,-44,-205,-202,-205r-401,0v26,-93,39,-152,39,-175v0,-35,-7,-69,-20,-102r71,-28v27,67,92,100,194,100v36,1,159,-10,196,-9","w":880},"\u05e9":{"d":"1124,-744v18,-55,-57,-50,-113,-48v-49,2,-57,3,-57,3v27,-95,40,-152,40,-172v0,-27,-6,-54,-17,-79r68,-24v14,38,49,67,105,67r131,0r34,43r-186,582v-37,114,-74,195,-112,243v-54,68,-131,107,-231,118r-444,50v-59,-131,-148,-463,-148,-630v0,-34,12,-149,11,-182v-5,-22,-70,-20,-104,-18r-52,2v28,-154,43,-161,7,-273r71,-28v14,49,48,78,101,89v14,3,62,4,145,4r24,54v-57,85,-85,195,-85,328v0,148,66,345,127,443r46,-1v120,-389,180,-586,180,-591v-2,-30,-68,-30,-110,-28v-46,3,-54,3,-54,3v27,-97,41,-156,41,-175v0,-21,-5,-46,-15,-74r66,-25v15,37,46,58,93,65v3,1,44,1,123,1r32,45r-242,770r102,-6v95,-6,168,-37,221,-92v53,-55,117,-211,202,-464","w":1378},"\u05ea":{"d":"227,-1092v16,48,81,95,142,95r418,0v178,1,257,71,261,242r17,755r-160,0v13,-428,20,-645,20,-652v1,-78,-51,-136,-129,-136r-418,0v-10,137,30,437,30,569v0,105,-25,178,-75,219r-297,0r49,-209r145,0v21,0,32,-18,32,-55v-1,-175,-19,-380,23,-519v-57,0,-106,-7,-146,-20v23,-66,34,-125,34,-176v0,-21,-6,-49,-17,-86","w":1160},"\u05f0":{"d":"1022,0r-163,0v12,423,18,637,18,642v0,61,-15,102,-45,124v-23,17,-62,25,-115,25v-11,0,-29,-0,-54,-1v-24,-1,-43,-1,-56,-1v21,91,31,147,31,169v0,33,-7,67,-22,103r68,28v21,-43,45,-70,74,-81v17,-7,55,-10,112,-10v87,0,131,-46,133,-138xm464,0r-163,0v12,423,18,637,18,642v0,61,-15,102,-45,124v-23,17,-62,25,-115,25v-11,0,-29,-0,-54,-1v-24,-1,-43,-1,-56,-1v21,91,31,147,31,169v0,33,-7,67,-22,103r68,28v21,-43,45,-70,74,-81v17,-7,55,-10,112,-10v87,0,131,-46,133,-138","w":1116},"\u05f1":{"d":"975,0r-163,0v12,423,18,637,18,642v0,61,-15,102,-45,124v-23,17,-62,25,-115,25v-11,0,-29,-0,-54,-1v-24,-1,-43,-1,-56,-1v21,91,31,147,31,169v0,33,-7,67,-22,103r68,28v21,-43,45,-70,74,-81v17,-7,55,-10,112,-10v87,0,131,-46,133,-138xm438,840v0,-116,-22,-257,-66,-422r-145,-36r-13,15v65,181,98,290,98,327v0,43,-27,65,-81,65r-182,0v21,89,31,146,31,169v0,30,-8,64,-24,103r70,28v21,-50,60,-80,116,-89r133,-19v42,-18,63,-65,63,-141","w":1069},"\u05f2":{"d":"949,840v0,-116,-22,-257,-66,-422r-145,-36r-13,15v65,181,98,290,98,327v0,43,-27,65,-81,65r-182,0v21,89,31,146,31,169v0,30,-8,64,-24,103r70,28v21,-50,60,-80,116,-89r133,-19v42,-18,63,-65,63,-141xm438,840v0,-116,-22,-257,-66,-422r-145,-36r-13,15v65,181,98,290,98,327v0,43,-27,65,-81,65r-182,0v21,89,31,146,31,169v0,30,-8,64,-24,103r70,28v21,-50,60,-80,116,-89r133,-19v42,-18,63,-65,63,-141","w":1022},"\u05f3":{"d":"291,-1095v0,178,-56,306,-169,383r-49,-45v54,-74,55,-244,34,-387r158,0v17,0,26,16,26,49","w":382},"\u05f4":{"d":"598,-1095v0,178,-56,306,-169,383r-49,-45v54,-74,55,-243,35,-387r158,0v17,0,25,16,25,49xm291,-1095v0,178,-56,306,-169,383r-49,-45v54,-74,55,-244,34,-387r158,0v17,0,26,16,26,49","w":689},"\u2013":{"d":"946,-413r-855,0r0,-136r855,0r0,136","w":1042},"\u2014":{"d":"105,-413r0,-136r1838,0r0,136r-1838,0","w":2048},"\u2018":{"d":"300,-1144v-54,74,-55,244,-35,387r-158,0v-17,0,-25,-16,-25,-49v0,-178,56,-305,169,-382","w":373},"\u2019":{"d":"291,-1095v0,178,-56,306,-169,383r-49,-45v54,-74,55,-244,34,-387r158,0v17,0,26,16,26,49","w":382},"\u201a":{"d":"309,-194v0,178,-56,305,-169,382r-49,-44v54,-73,55,-244,35,-387r157,0v17,0,26,16,26,49","w":427},"\u201c":{"d":"607,-1144v-53,74,-54,245,-34,387r-158,0v-17,0,-26,-16,-26,-49v0,-178,56,-305,169,-382xm300,-1144v-54,74,-55,244,-35,387r-158,0v-17,0,-25,-16,-25,-49v0,-178,56,-305,169,-382","w":680},"\u201d":{"d":"598,-1095v0,178,-56,306,-169,383r-49,-45v54,-74,55,-243,35,-387r158,0v17,0,25,16,25,49xm291,-1095v0,178,-56,306,-169,383r-49,-45v54,-74,55,-244,34,-387r158,0v17,0,26,16,26,49","w":689},"\u201e":{"d":"616,-194v0,178,-56,305,-168,382r-49,-44v53,-74,54,-244,34,-387r158,0v17,0,25,16,25,49xm309,-194v0,178,-56,305,-169,382r-49,-44v54,-73,55,-244,35,-387r157,0v17,0,26,16,26,49","w":735},"\u2022":{"d":"363,-928v141,0,251,110,251,251v0,141,-110,251,-251,251v-141,0,-251,-110,-251,-251v0,-141,110,-251,251,-251","w":717},"\u2026":{"d":"1217,-100r-127,135r-28,0r-126,-135r0,-27r126,-131r28,0r127,131r0,27xm778,-100r-126,135r-28,0r-127,-135r0,-27r127,-131r28,0r126,131r0,27xm335,-100r-126,135r-28,0r-126,-135r0,-27r126,-131r28,0r126,131r0,27","w":1317},"\u2039":{"d":"563,8r-57,0r-387,-472r387,-470r57,0r-244,470","w":682},"\u203a":{"d":"567,-462r-394,470r-58,0r243,-470r-243,-472r58,0","w":682},"\u2122":{"d":"1862,-716v2,112,10,120,111,131r0,36r-398,0r0,-36v99,-3,119,-21,119,-130r0,-492r-307,658r-32,0r-308,-649r0,482v0,66,12,105,36,120v18,11,59,11,93,11r0,36r-306,0r0,-36v57,0,92,-14,104,-41v6,-14,9,-44,9,-90r0,-466v0,-72,-12,-114,-37,-127v-13,-7,-38,-10,-76,-10r0,-37r286,0r273,572r265,-572r279,0r0,37v-98,1,-111,26,-111,135r0,468xm254,-1296v-126,1,-167,35,-190,141r-34,0r21,-201r728,0r22,201r-34,0v-13,-94,-78,-141,-194,-141r-75,0r0,579v1,105,11,124,106,132r0,36r-374,0r0,-36v91,-13,100,-26,100,-131r0,-580r-76,0","w":2007},"\ufb00":{"d":"1033,1227v-5,-26,-19,-39,-41,-39v-7,0,-18,2,-32,5v-16,4,-27,6,-32,7v-3,1,-7,1,-10,1v-25,0,-49,-12,-72,-36v-25,-27,-38,-60,-38,-100r0,-204r137,0v2,-5,3,-9,3,-14v0,-15,-7,-28,-20,-41v-13,-13,-26,-19,-41,-19r-79,0r0,-654v0,-49,-11,-87,-34,-115v-22,-27,-49,-41,-81,-41v-6,0,-12,1,-18,2r0,808r-114,0v-3,7,-5,14,-5,21v0,35,21,53,62,53r57,0r0,147v0,71,22,131,66,182v43,51,99,76,167,76v8,0,16,-0,24,-1v32,-3,66,-16,101,-38xm518,1227v-5,-26,-19,-39,-41,-39v-7,0,-18,2,-32,5v-16,4,-27,6,-32,7v-3,1,-7,1,-10,1v-25,0,-49,-12,-72,-36v-25,-27,-38,-60,-38,-100r0,-204r137,0v2,-5,3,-9,3,-14v0,-15,-7,-28,-20,-41v-13,-13,-26,-19,-41,-19r-79,0r0,-654v0,-49,-11,-87,-34,-115v-22,-27,-49,-41,-81,-41v-6,0,-12,1,-18,2r0,808r-114,0v-3,7,-5,14,-5,21v0,35,21,53,62,53r57,0r0,147v0,71,22,131,66,182v43,51,99,76,167,76v8,0,16,-0,24,-1v32,-3,66,-16,101,-38","w":1030},"\ufb01":{"d":"793,1086v0,-25,-9,-46,-26,-63v-17,-17,-38,-25,-62,-25v-24,0,-45,9,-62,26v-17,17,-26,37,-26,62v0,24,9,45,26,62v17,17,38,25,62,25v24,0,45,-9,62,-26v17,-17,26,-37,26,-61xm771,-21v-90,0,-135,54,-135,163r0,665v0,55,22,82,67,82v45,0,68,-27,68,-82r0,-828xm518,1227v-5,-26,-19,-39,-41,-39v-7,0,-18,2,-32,5v-16,4,-27,6,-32,7v-3,1,-7,1,-10,1v-25,0,-49,-12,-72,-36v-25,-27,-38,-60,-38,-100r0,-204r137,0v2,-5,3,-9,3,-14v0,-15,-7,-28,-20,-41v-13,-13,-26,-19,-41,-19r-79,0r0,-654v0,-49,-11,-87,-34,-115v-22,-27,-49,-41,-81,-41v-6,0,-12,1,-18,2r0,808r-114,0v-3,7,-5,14,-5,21v0,35,21,53,62,53r57,0r0,147v0,71,22,131,66,182v43,51,99,76,167,76v8,0,16,-0,24,-1v32,-3,66,-16,101,-38","w":895},"\ufb02":{"d":"754,-21r0,1122v0,112,-46,168,-137,168r0,-1133v0,-105,46,-157,137,-157xm518,1227v-5,-26,-19,-39,-41,-39v-7,0,-18,2,-32,5v-16,4,-27,6,-32,7v-3,1,-7,1,-10,1v-25,0,-49,-12,-72,-36v-25,-27,-38,-60,-38,-100r0,-204r137,0v2,-5,3,-9,3,-14v0,-15,-7,-28,-20,-41v-13,-13,-26,-19,-41,-19r-79,0r0,-654v0,-49,-11,-87,-34,-115v-22,-27,-49,-41,-81,-41v-6,0,-12,1,-18,2r0,808r-114,0v-3,7,-5,14,-5,21v0,35,21,53,62,53r57,0r0,147v0,71,22,131,66,182v43,51,99,76,167,76v8,0,16,-0,24,-1v32,-3,66,-16,101,-38","w":857},"\ufb03":{"d":"1308,1086v0,-25,-9,-46,-26,-63v-17,-17,-38,-25,-62,-25v-24,0,-45,9,-62,26v-17,17,-26,37,-26,62v0,24,9,45,26,62v17,17,38,25,62,25v24,0,45,-9,62,-26v17,-17,26,-37,26,-61xm1286,-21v-90,0,-135,54,-135,163r0,665v0,55,22,82,67,82v45,0,68,-27,68,-82r0,-828xm1033,1227v-5,-26,-19,-39,-41,-39v-7,0,-18,2,-32,5v-16,4,-27,6,-32,7v-3,1,-7,1,-10,1v-25,0,-49,-12,-72,-36v-25,-27,-38,-60,-38,-100r0,-204r137,0v2,-5,3,-9,3,-14v0,-15,-7,-28,-20,-41v-13,-13,-26,-19,-41,-19r-79,0r0,-654v0,-49,-11,-87,-34,-115v-22,-27,-49,-41,-81,-41v-6,0,-12,1,-18,2r0,808r-114,0v-3,7,-5,14,-5,21v0,35,21,53,62,53r57,0r0,147v0,71,22,131,66,182v43,51,99,76,167,76v8,0,16,-0,24,-1v32,-3,66,-16,101,-38xm518,1227v-5,-26,-19,-39,-41,-39v-7,0,-18,2,-32,5v-16,4,-27,6,-32,7v-3,1,-7,1,-10,1v-25,0,-49,-12,-72,-36v-25,-27,-38,-60,-38,-100r0,-204r137,0v2,-5,3,-9,3,-14v0,-15,-7,-28,-20,-41v-13,-13,-26,-19,-41,-19r-79,0r0,-654v0,-49,-11,-87,-34,-115v-22,-27,-49,-41,-81,-41v-6,0,-12,1,-18,2r0,808r-114,0v-3,7,-5,14,-5,21v0,35,21,53,62,53r57,0r0,147v0,71,22,131,66,182v43,51,99,76,167,76v8,0,16,-0,24,-1v32,-3,66,-16,101,-38","w":1410},"\ufb04":{"d":"1269,-21r0,1122v0,112,-46,168,-137,168r0,-1133v0,-105,46,-157,137,-157xm1033,1227v-5,-26,-19,-39,-41,-39v-7,0,-18,2,-32,5v-16,4,-27,6,-32,7v-3,1,-7,1,-10,1v-25,0,-49,-12,-72,-36v-25,-27,-38,-60,-38,-100r0,-204r137,0v2,-5,3,-9,3,-14v0,-15,-7,-28,-20,-41v-13,-13,-26,-19,-41,-19r-79,0r0,-654v0,-49,-11,-87,-34,-115v-22,-27,-49,-41,-81,-41v-6,0,-12,1,-18,2r0,808r-114,0v-3,7,-5,14,-5,21v0,35,21,53,62,53r57,0r0,147v0,71,22,131,66,182v43,51,99,76,167,76v8,0,16,-0,24,-1v32,-3,66,-16,101,-38xm518,1227v-5,-26,-19,-39,-41,-39v-7,0,-18,2,-32,5v-16,4,-27,6,-32,7v-3,1,-7,1,-10,1v-25,0,-49,-12,-72,-36v-25,-27,-38,-60,-38,-100r0,-204r137,0v2,-5,3,-9,3,-14v0,-15,-7,-28,-20,-41v-13,-13,-26,-19,-41,-19r-79,0r0,-654v0,-49,-11,-87,-34,-115v-22,-27,-49,-41,-81,-41v-6,0,-12,1,-18,2r0,808r-114,0v-3,7,-5,14,-5,21v0,35,21,53,62,53r57,0r0,147v0,71,22,131,66,182v43,51,99,76,167,76v8,0,16,-0,24,-1v32,-3,66,-16,101,-38","w":1372},"\ufb06":{"d":"1344,17v-35,-22,-69,-34,-102,-37v-8,-1,-16,-1,-24,-1v-68,0,-124,25,-168,76v-43,51,-65,111,-65,182r0,555r-57,0v-41,0,-62,18,-62,53v0,7,2,14,5,21r114,0r0,403v7,2,14,3,21,3v29,0,54,-14,76,-42v24,-31,36,-69,36,-115r0,-249r80,0v15,0,29,-6,42,-19v13,-13,19,-26,19,-41v0,-5,-1,-10,-3,-14r-138,0r0,-613v0,-39,13,-72,38,-99v22,-24,46,-36,72,-36v3,0,7,0,11,1v5,1,15,3,32,7v14,3,25,5,32,5v21,0,35,-13,41,-40xm750,211v-4,-77,-42,-136,-115,-178v-62,-36,-137,-54,-224,-54v-70,0,-134,14,-192,42v-64,31,-106,74,-127,127v13,3,24,5,35,5v17,0,32,-5,47,-15r34,-28v49,-34,109,-52,180,-54r12,0v51,0,95,12,133,36v41,27,63,63,67,108v1,8,1,16,1,24v0,45,-13,85,-40,119v-29,37,-71,63,-124,76r-96,25v-164,41,-246,112,-246,213v0,8,1,16,2,24v9,70,47,124,113,161v54,31,117,47,189,47v73,0,138,-17,197,-52v55,-32,96,-74,123,-127v-11,-4,-21,-6,-30,-6v-14,0,-48,17,-102,51v-49,31,-104,48,-167,51r-14,0v-51,0,-92,-14,-122,-42v-29,-27,-44,-61,-44,-103v0,-73,53,-122,160,-149r98,-24v74,-19,134,-50,179,-95v49,-48,73,-104,73,-169r0,-13","w":1368},"\ufb1d":{"d":"585,840v0,-116,-22,-257,-66,-422r-145,-36r-13,15v65,181,98,290,98,327v0,43,-27,65,-81,65r-182,0v21,89,31,146,31,169v0,30,-8,64,-24,103r70,28v21,-50,60,-80,116,-89r133,-19v42,-18,63,-65,63,-141xm147,-279r-147,0r0,146r147,0r0,-146","w":658},"\ufb1f":{"d":"1348,840v0,-116,-22,-257,-66,-422r-145,-36r-13,15v65,181,98,290,98,327v0,43,-27,65,-81,65r-182,0v21,89,31,146,31,169v0,30,-8,64,-24,103r70,28v21,-50,60,-80,116,-89r133,-19v42,-18,63,-65,63,-141xm837,840v0,-116,-22,-257,-66,-422r-145,-36r-13,15v65,181,98,290,98,327v0,43,-27,65,-81,65r-182,0v21,89,31,146,31,169v0,30,-8,64,-24,103r70,28v21,-50,60,-80,116,-89r133,-19v42,-18,63,-65,63,-141xm399,-256r-399,0r0,123r399,0r0,-123","w":1421},"\ufb20":{"d":"973,956v-21,-69,-42,-161,-63,-276r-48,-287v-21,-137,-68,-231,-140,-283v-67,-48,-283,-119,-648,-212r30,214v99,19,198,42,297,68r-157,547v-13,43,-50,65,-112,65v-9,0,-23,-1,-42,-2v-18,-1,-31,-1,-39,-1v21,89,31,146,31,169v0,33,-7,67,-22,103r68,28v23,-63,76,-94,157,-94v10,0,26,1,47,2v21,1,36,1,47,1r35,-46v-28,-39,-42,-92,-42,-159v0,-41,6,-82,17,-125r117,-460v89,26,152,62,189,109v35,43,61,112,76,206v22,133,33,204,33,214v0,37,-38,56,-114,56v-14,0,-31,-1,-52,-2v-21,-1,-33,-2,-37,-2v26,84,39,143,39,177v0,24,-3,47,-9,70r64,25v19,-42,51,-63,96,-63r155,0","w":1037},"\ufb21":{"d":"1085,173r-73,-194r-42,0v-42,120,-126,251,-252,393v-117,133,-235,237,-354,312v-40,-63,-60,-131,-60,-206v0,-106,34,-208,103,-305r-74,-173r-309,0r62,171r112,17v-14,47,-21,116,-21,206v0,52,12,111,36,176v23,65,52,118,85,158v-40,27,-109,67,-207,119v28,69,42,120,42,153v0,24,-3,49,-8,76r75,22v21,-57,59,-104,114,-143v93,-65,229,-168,409,-307v34,124,51,234,51,330v0,36,42,54,127,54v62,0,114,-4,157,-12r-49,-227r-60,3v-50,0,-88,-24,-114,-73v-8,-16,-23,-63,-45,-140v115,-111,214,-247,295,-410","w":1139},"\ufb22":{"d":"915,1005r-51,-217v-11,0,-25,1,-44,3v-19,1,-32,2,-39,2v-33,0,-50,-16,-50,-49v0,-5,8,-253,23,-744r-180,0r33,788r-562,0v26,93,39,152,39,175v0,35,-7,69,-20,102r72,28v26,-64,79,-96,158,-96r362,0v77,0,157,9,242,26","w":967},"\ufb23":{"d":"977,941v-41,-56,-62,-131,-62,-226v0,-21,10,-259,31,-715r-179,0r25,788r-723,0v25,93,38,152,38,175v0,35,-7,69,-20,102r72,28v27,-64,80,-96,159,-96r637,0xm276,0r-174,0v2,107,11,267,26,480r139,33v-5,-54,-8,-124,-8,-210v0,-111,6,-212,17,-303","w":1074},"\ufb24":{"d":"840,577v0,-79,-9,-159,-27,-240v-21,-97,-51,-170,-90,-221v-39,-51,-60,-78,-64,-81v-24,-23,-55,-35,-94,-35r-505,0r83,209r430,0v96,0,144,53,144,158v0,132,-9,224,-26,276v-32,97,-99,145,-202,145r-401,0v21,89,31,146,31,169v0,33,-7,67,-22,103r68,29v23,-61,64,-92,125,-92v15,0,42,1,80,2v37,1,67,2,88,2v148,0,247,-34,298,-101v56,-73,84,-181,84,-323","w":909},"\ufb25":{"d":"819,797v0,-182,-50,-349,-150,-502v-100,-152,-233,-266,-400,-342r-31,0r21,216v101,42,196,113,285,214v97,111,146,216,146,315v0,60,-33,90,-98,90r-413,0v-47,0,-79,16,-94,48v-9,18,-16,56,-20,113r-32,435r163,43r17,-14v-15,-222,-22,-336,-22,-343v0,-33,5,-53,14,-62v7,-7,28,-11,63,-11r376,0v117,0,175,-67,175,-200","w":888},"\ufb26":{"d":"997,0r-871,0r0,722v0,127,-20,238,-59,335r83,21v26,-54,72,-81,138,-81r479,0v153,0,230,-84,230,-251r0,-746xm879,202r0,333v0,99,-13,165,-38,198v-29,38,-92,57,-188,57r-406,0r0,-588r632,0","w":1093},"\ufb27":{"d":"785,0r-158,0v15,377,23,572,23,583v0,78,-14,132,-43,161v-29,29,-82,44,-159,44r-401,0v26,93,39,152,39,175v0,35,-7,69,-20,102r71,28v27,-67,92,-100,194,-100v21,0,53,2,97,5v44,3,77,4,99,4v81,0,142,-18,181,-53v51,-47,77,-129,77,-247r0,-702","w":880},"\ufb28":{"d":"1065,0r-160,0v13,428,20,645,20,652v0,40,-12,73,-35,98v-23,25,-55,38,-94,38r-418,0r-1,-54v0,-58,5,-144,16,-259v10,-115,15,-200,15,-256v0,-105,-25,-178,-75,-219r-297,0r49,209r145,0v21,0,32,18,32,55v0,18,-1,76,-4,173v-1,31,-1,59,-1,85v0,35,1,65,2,91v3,64,12,121,26,170v-57,0,-106,7,-146,20v23,66,34,125,34,176v0,21,-6,49,-17,86r71,27v10,-27,29,-49,57,-68v28,-18,56,-27,85,-27r418,0v87,0,152,-18,193,-55v43,-39,66,-101,68,-187","w":1160},"\ufb29":{"d":"617,422r-201,0r0,-205r-119,0r0,205r-201,0r0,118r201,0r0,208r119,0r0,-208r201,0r0,-118","w":713},"\ufb2a":{"d":"2562,954r-186,-582v-37,-114,-74,-195,-112,-243v-54,-68,-131,-107,-231,-118r-444,-50v-35,82,-67,185,-98,310v-33,135,-50,242,-50,320v0,20,2,51,6,92v3,41,5,71,5,90v0,9,-12,14,-35,17v-10,1,-22,2,-37,2v-9,0,-20,-0,-32,-1r-53,-2r1,0v19,89,28,146,28,171v0,31,-7,65,-21,102r71,28v14,-49,48,-78,101,-89v14,-3,62,-4,145,-4r24,-54v-57,-85,-85,-195,-85,-328v0,-67,12,-143,37,-228v25,-85,55,-156,90,-215r46,1v120,389,180,586,180,591v0,13,-12,21,-37,26v-11,2,-26,3,-44,3v-9,0,-18,-0,-29,-1v-46,-2,-64,-3,-54,-3v27,97,41,156,41,175v0,21,-5,46,-15,74r66,25v15,-37,46,-58,93,-65v3,-1,44,-1,123,-1r32,-45r-242,-770r102,6v95,6,169,37,222,92v53,55,120,209,201,464v3,9,4,16,4,21v0,13,-13,21,-39,25v-13,2,-28,3,-47,3v-9,0,-20,-0,-31,-1v-49,-2,-68,-3,-57,-3v27,95,40,152,40,172v0,27,-6,54,-17,79r68,24v14,-38,49,-60,105,-67r131,0xm999,1135r-147,0r0,145r147,0r0,-145","w":2625},"\ufb2b":{"d":"2562,954r-186,-582v-37,-114,-74,-195,-112,-243v-54,-68,-131,-107,-231,-118r-444,-50v-35,82,-67,185,-98,310v-33,135,-50,242,-50,320v0,20,2,51,6,92v3,41,5,71,5,90v0,9,-12,14,-35,17v-10,1,-22,2,-37,2v-9,0,-20,-0,-32,-1r-53,-2r1,0v19,89,28,146,28,171v0,31,-7,65,-21,102r71,28v14,-49,48,-78,101,-89v14,-3,62,-4,145,-4r24,-54v-57,-85,-85,-195,-85,-328v0,-67,12,-143,37,-228v25,-85,55,-156,90,-215r46,1v120,389,180,586,180,591v0,13,-12,21,-37,26v-11,2,-26,3,-44,3v-9,0,-18,-0,-29,-1v-46,-2,-64,-3,-54,-3v27,97,41,156,41,175v0,21,-5,46,-15,74r66,25v15,-37,46,-58,93,-65v3,-1,44,-1,123,-1r32,-45r-242,-770r102,6v95,6,169,37,222,92v53,55,120,209,201,464v3,9,4,16,4,21v0,13,-13,21,-39,25v-13,2,-28,3,-47,3v-9,0,-20,-0,-31,-1v-49,-2,-68,-3,-57,-3v27,95,40,152,40,172v0,27,-6,54,-17,79r68,24v14,-38,49,-60,105,-67r131,0xm270,1135r-147,0r0,145r147,0r0,-145","w":2625},"\ufb2e":{"d":"1484,173r-73,-194r-42,0v-42,120,-126,251,-252,393v-117,133,-235,237,-354,312v-40,-63,-60,-131,-60,-206v0,-106,34,-208,103,-305r-74,-173r-309,0r62,171r112,17v-14,47,-21,116,-21,206v0,52,12,111,36,176v23,65,52,118,85,158v-40,27,-109,67,-207,119v28,69,42,120,42,153v0,24,-3,49,-8,76r75,22v21,-57,59,-104,114,-143v93,-65,229,-168,409,-307v34,124,51,234,51,330v0,36,42,54,127,54v62,0,114,-4,157,-12r-49,-227r-60,3v-50,0,-88,-24,-114,-73v-8,-16,-23,-63,-45,-140v115,-111,214,-247,295,-410xm399,-256r-399,0r0,123r399,0r0,-123","w":1538},"\ufb2f":{"d":"1484,173r-73,-194r-42,0v-42,120,-126,251,-252,393v-117,133,-235,237,-354,312v-40,-63,-60,-131,-60,-206v0,-106,34,-208,103,-305r-74,-173r-309,0r62,171r112,17v-14,47,-21,116,-21,206v0,52,12,111,36,176v23,65,52,118,85,158v-40,27,-109,67,-207,119v28,69,42,120,42,153v0,24,-3,49,-8,76r75,22v21,-57,59,-104,114,-143v93,-65,229,-168,409,-307v34,124,51,234,51,330v0,36,42,54,127,54v62,0,114,-4,157,-12r-49,-227r-60,3v-50,0,-88,-24,-114,-73v-8,-16,-23,-63,-45,-140v115,-111,214,-247,295,-410xm399,-256r-145,0r8,-207r-121,0r6,207r-147,0r0,123r399,0r0,-123","w":1538},"\ufb30":{"d":"1232,173r-73,-194r-42,0v-42,120,-126,251,-252,393v-117,133,-235,237,-354,312v-40,-63,-60,-131,-60,-206v0,-106,34,-208,103,-305r-74,-173r-309,0r62,171r112,17v-14,47,-21,116,-21,206v0,52,12,111,36,176v23,65,52,118,85,158v-40,27,-109,67,-207,119v28,69,42,120,42,153v0,24,-3,49,-8,76r75,22v21,-57,59,-104,114,-143v93,-65,229,-168,409,-307v34,124,51,234,51,330v0,36,42,54,127,54v62,0,114,-4,157,-12r-49,-227r-60,3v-50,0,-88,-24,-114,-73v-8,-16,-23,-63,-45,-140v115,-111,214,-247,295,-410xm147,442r-147,0r0,146r147,0r0,-146","w":1286},"\ufb31":{"d":"1063,209r-69,-209r-804,0r66,209r577,0v-14,247,-22,377,-23,388v-11,84,-38,138,-79,161v-38,21,-118,32,-239,32v-21,0,-63,-0,-124,-1v-61,-1,-111,-1,-152,-1v25,93,38,152,38,175v0,35,-7,69,-20,102r72,28v27,-64,80,-96,159,-96r195,0v94,0,167,-28,220,-83v53,-55,79,-129,79,-224v0,-63,-4,-143,-13,-240r-22,-241r139,0xm147,442r-147,0r0,146r147,0r0,-146","w":1080},"\ufb32":{"d":"795,0r-143,0v-7,104,-21,224,-42,359r-14,0r-128,-208v-29,-47,-51,-78,-64,-93v-26,-29,-58,-48,-95,-58r-127,-35r-15,14r61,221r85,30v48,16,105,57,171,123v69,71,104,127,104,170v0,118,-9,192,-28,223v-18,31,-61,46,-130,46v-13,0,-39,-1,-79,-2v-39,-1,-73,-1,-100,-1v21,89,31,146,31,169v0,33,-7,67,-22,103r68,28v18,-48,49,-77,92,-87v12,-3,57,-4,136,-4v113,0,169,-56,169,-168v0,-29,-2,-73,-7,-132v-5,-59,-7,-103,-7,-132v0,-77,10,-172,30,-284xm147,442r-147,0r0,146r147,0r0,-146","w":831},"\ufb33":{"d":"1062,1005r-51,-217v-11,0,-25,1,-44,3v-19,1,-32,2,-39,2v-33,0,-50,-16,-50,-49v0,-5,8,-253,23,-744r-180,0r33,788r-562,0v26,93,39,152,39,175v0,35,-7,69,-20,102r72,28v26,-64,79,-96,158,-96r362,0v77,0,157,9,242,26xm147,442r-147,0r0,146r147,0r0,-146","w":1114},"\ufb34":{"d":"1124,941v-41,-56,-62,-131,-62,-226v0,-21,10,-259,31,-715r-179,0r25,788r-723,0v25,93,38,152,38,175v0,35,-7,69,-20,102r72,28v27,-64,80,-96,159,-96r637,0xm423,0r-174,0v2,107,11,267,26,480r139,33v-5,-54,-8,-124,-8,-210v0,-111,6,-212,17,-303xm147,442r-147,0r0,146r147,0r0,-146","w":1221},"\ufb35":{"d":"611,0r-163,0v12,423,18,637,18,642v0,61,-15,102,-45,124v-23,17,-62,25,-115,25v-11,0,-29,-0,-54,-1v-24,-1,-43,-1,-56,-1v21,91,31,147,31,169v0,33,-7,67,-22,103r68,28v21,-43,45,-70,74,-81v17,-7,55,-10,112,-10v87,0,131,-46,133,-138xm147,442r-147,0r0,146r147,0r0,-146","w":705},"\ufb36":{"d":"684,958r-56,-170v-62,0,-97,-2,-104,-6v-16,-9,-24,-40,-24,-93v0,-19,2,-57,5,-112r38,-577r-172,0r0,513v0,97,15,189,46,276r-221,0v21,89,31,146,31,169v0,33,-7,67,-22,103r68,28v23,-61,64,-91,125,-91r258,0xm147,442r-147,0r0,146r147,0r0,-146","w":765},"\ufb38":{"d":"1224,729v0,-81,-12,-168,-37,-263v-24,-95,-56,-176,-95,-245v-67,-117,-176,-188,-328,-214r-268,-45v-53,79,-96,180,-130,304v-33,119,-49,228,-49,328v0,69,8,126,24,169v3,7,4,12,4,15v0,7,-11,11,-33,12v-10,1,-23,1,-40,1r-26,0v-37,-1,-53,-2,-50,-2v19,89,28,146,28,171v0,31,-7,65,-21,102r71,28v14,-49,48,-78,103,-89v13,-3,62,-4,147,-4r24,-54v-31,-38,-57,-90,-78,-155v-21,-63,-31,-120,-31,-171v0,-68,14,-144,41,-228v28,-86,62,-155,103,-206v107,9,172,15,196,19v75,13,135,37,180,72v81,63,122,166,122,310v0,141,-66,211,-198,211v-71,0,-127,-29,-168,-87r-45,32v40,114,68,180,83,199v34,43,98,65,192,65v186,0,279,-92,279,-275xm147,442r-147,0r0,146r147,0r0,-146","w":1297},"\ufb39":{"d":"585,840v0,-116,-22,-257,-66,-422r-145,-36r-13,15v65,181,98,290,98,327v0,43,-27,65,-81,65r-182,0v21,89,31,146,31,169v0,30,-8,64,-24,103r70,28v21,-50,60,-80,116,-89r133,-19v42,-18,63,-65,63,-141xm147,442r-147,0r0,146r147,0r0,-146","w":658},"\ufb3a":{"d":"933,769v0,-73,-4,-182,-12,-327v-8,-145,-12,-254,-12,-327v0,-191,7,-332,20,-421r-171,-50r35,975r0,5v0,61,-11,104,-34,128v-24,25,-68,37,-133,37r-432,0v25,81,37,137,37,169v0,33,-7,67,-22,103r68,28v22,-61,64,-91,125,-91r312,0v146,0,219,-76,219,-229xm147,442r-147,0r0,146r147,0r0,-146","w":1020},"\ufb3b":{"d":"987,577v0,-79,-9,-159,-27,-240v-21,-97,-51,-170,-90,-221v-39,-51,-60,-78,-64,-81v-24,-23,-55,-35,-94,-35r-505,0r83,209r430,0v96,0,144,53,144,158v0,132,-9,224,-26,276v-32,97,-99,145,-202,145r-401,0v21,89,31,146,31,169v0,33,-7,67,-22,103r68,29v23,-61,64,-92,125,-92v15,0,42,1,80,2v37,1,67,2,88,2v148,0,247,-34,298,-101v56,-73,84,-181,84,-323xm147,442r-147,0r0,146r147,0r0,-146","w":1056},"\ufb3c":{"d":"966,797v0,-182,-50,-349,-150,-502v-100,-152,-233,-266,-400,-342r-31,0r21,216v101,42,196,113,285,214v97,111,146,216,146,315v0,60,-33,90,-98,90r-413,0v-47,0,-79,16,-94,48v-9,18,-16,56,-20,113r-32,435r163,43r17,-14v-15,-222,-22,-336,-22,-343v0,-33,5,-53,14,-62v7,-7,28,-11,63,-11r376,0v117,0,175,-67,175,-200xm147,442r-147,0r0,146r147,0r0,-146","w":1035},"\ufb3e":{"d":"1231,209r-69,-209r-582,0r83,209r452,0r-46,328v-13,97,-39,166,-76,207v-43,47,-111,70,-204,70v-130,0,-224,-124,-282,-372r-104,-442r-173,0r106,318v56,173,84,272,84,297v0,23,-7,58,-20,107v-13,46,-52,69,-119,69v-11,0,-26,-1,-45,-2v-19,-1,-33,-1,-42,-1v21,89,31,146,31,169v0,33,-7,67,-22,103r69,29v19,-55,67,-86,143,-94v55,-6,87,-37,97,-94r27,-163v71,115,111,177,118,186v53,63,116,94,188,94r63,0v193,0,295,-131,306,-393xm147,442r-147,0r0,146r147,0r0,-146","w":1300},"\ufb40":{"d":"666,490v0,-237,-30,-401,-89,-490r-395,0r65,209r303,0v0,143,-9,297,-28,461v-9,79,-47,119,-113,119r-177,0v18,77,27,132,27,165v0,33,-7,67,-22,104r72,31v15,-40,37,-66,66,-79v19,-8,54,-12,103,-12v125,0,188,-74,188,-221r0,-287xm147,442r-147,0r0,146r147,0r0,-146","w":757},"\ufb41":{"d":"1207,738v0,-81,-20,-183,-60,-307v-40,-126,-84,-220,-131,-282v-65,-84,-154,-134,-268,-149r-299,-39v-93,132,-154,384,-184,757v-7,83,-13,142,-18,178v-11,70,-26,128,-45,173r81,29v40,-67,84,-100,132,-100r518,0v183,0,274,-87,274,-260xm1065,604v0,58,-17,103,-50,136v-33,33,-79,49,-138,49r-497,0v8,-98,24,-203,49,-316v31,-141,66,-238,103,-291r193,14v227,15,340,151,340,408xm147,442r-147,0r0,146r147,0r0,-146","w":1279},"\ufb43":{"d":"961,769v0,-73,-4,-182,-12,-327v-8,-145,-12,-254,-12,-327v0,-191,7,-332,20,-421r-171,-50r35,975r0,5v0,61,-11,104,-34,128v-24,24,-68,36,-133,36r-285,0r0,-141v0,-49,23,-74,69,-74r144,0r-52,-183r-183,0v-79,0,-118,37,-118,112v0,38,7,95,22,170v14,75,21,132,21,171v0,73,-12,151,-36,235r78,19v28,-69,104,-104,227,-104v17,0,44,1,80,2v35,1,62,2,80,2v83,0,143,-13,182,-39v52,-35,78,-98,78,-189xm147,442r-147,0r0,146r147,0r0,-146","w":1048},"\ufb44":{"d":"1062,594v0,-123,-18,-241,-53,-354v-50,-160,-123,-240,-218,-240r-566,0r49,205r515,0v57,0,96,15,118,44v19,25,28,67,28,127v0,127,-6,215,-18,264v-27,108,-84,162,-173,162r-367,0r0,-137v0,-52,35,-78,104,-78v11,0,27,1,48,2v20,1,34,2,43,2r-34,-183r-183,0v-79,0,-118,37,-118,111v0,36,7,90,22,162v14,72,21,126,21,163v0,71,-12,149,-36,234r78,19v27,-67,84,-100,171,-100r301,0v106,0,180,-43,222,-130v31,-63,46,-154,46,-273xm147,442r-147,0r0,146r147,0r0,-146","w":1131},"\ufb46":{"d":"1079,994r-36,-212r-107,0v-37,0,-61,-15,-72,-44v-18,-65,-49,-161,-93,-288v44,-55,114,-135,209,-240v17,-17,26,-28,26,-33v0,-6,-31,-65,-93,-177r-701,0r49,205r508,0r-294,457v-35,54,-74,89,-115,106v-33,13,-85,20,-157,20v28,70,42,126,42,169v0,38,-6,72,-18,101r68,29v20,-46,50,-74,90,-84v15,-4,57,-6,128,-6r25,-45v-17,-36,-26,-71,-26,-106v0,-43,24,-101,72,-174v13,-19,52,-72,119,-157v19,51,33,120,41,206v5,71,11,141,17,212v2,17,10,33,24,48v13,14,29,21,46,21v13,0,31,0,56,1v25,1,43,1,56,1v62,0,107,-3,136,-10xm147,442r-147,0r0,146r147,0r0,-146","w":1152},"\ufb47":{"d":"1138,741v0,-170,-46,-320,-139,-449v-45,-62,-105,-125,-181,-188v-79,-65,-152,-113,-220,-143r-18,0r28,242v93,34,181,89,264,166v97,90,146,178,146,263v0,104,-54,156,-161,156r-643,0v28,78,42,134,42,169v0,41,-6,77,-18,108r71,28v27,-64,80,-96,159,-96r438,0v155,0,232,-85,232,-256xm437,-301r-176,-65r17,929r138,34xm147,442r-147,0r0,146r147,0r0,-146","w":1203},"\ufb48":{"d":"932,0r-158,0v15,377,23,572,23,583v0,78,-14,132,-43,161v-29,29,-82,44,-159,44r-401,0v26,93,39,152,39,175v0,35,-7,69,-20,102r71,28v27,-67,92,-100,194,-100v21,0,53,2,97,5v44,3,77,4,99,4v81,0,142,-18,181,-53v51,-47,77,-129,77,-247r0,-702xm147,442r-147,0r0,146r147,0r0,-146","w":1027},"\ufb49":{"d":"1462,954r-186,-582v-37,-114,-74,-195,-112,-243v-54,-68,-131,-107,-231,-118r-444,-50v-35,82,-67,185,-98,310v-33,135,-50,242,-50,320v0,20,2,51,6,92v3,41,5,71,5,90v0,9,-12,14,-35,17v-10,1,-22,2,-37,2v-9,0,-20,-0,-32,-1r-53,-2r1,0v19,89,28,146,28,171v0,31,-7,65,-21,102r71,28v14,-49,48,-78,101,-89v14,-3,62,-4,145,-4r24,-54v-57,-85,-85,-195,-85,-328v0,-67,12,-143,37,-228v25,-85,55,-156,90,-215r46,1v120,389,180,586,180,591v0,13,-12,21,-37,26v-11,2,-26,3,-44,3v-9,0,-18,-0,-29,-1v-46,-2,-64,-3,-54,-3v27,97,41,156,41,175v0,21,-5,46,-15,74r66,25v15,-37,46,-58,93,-65v3,-1,44,-1,123,-1r32,-45r-242,-770r102,6v95,6,169,37,222,92v53,55,120,209,201,464v3,9,4,16,4,21v0,13,-13,21,-39,25v-13,2,-28,3,-47,3v-9,0,-20,-0,-31,-1v-49,-2,-68,-3,-57,-3v27,95,40,152,40,172v0,27,-6,54,-17,79r68,24v14,-38,49,-60,105,-67r131,0xm147,442r-147,0r0,146r147,0r0,-146","w":1525},"\ufb4a":{"d":"1212,0r-160,0v13,428,20,645,20,652v0,40,-12,73,-35,98v-23,25,-55,38,-94,38r-418,0r-1,-54v0,-58,5,-144,16,-259v10,-115,15,-200,15,-256v0,-105,-25,-178,-75,-219r-297,0r49,209r145,0v21,0,32,18,32,55v0,18,-1,76,-4,173v-1,31,-1,59,-1,85v0,35,1,65,2,91v3,64,12,121,26,170v-57,0,-106,7,-146,20v23,66,34,125,34,176v0,21,-6,49,-17,86r71,27v10,-27,29,-49,57,-68v28,-18,56,-27,85,-27r418,0v87,0,152,-18,193,-55v43,-39,66,-101,68,-187xm147,442r-147,0r0,146r147,0r0,-146","w":1307},"\ufb4b":{"d":"611,0r-163,0v12,423,18,637,18,642v0,61,-15,102,-45,124v-23,17,-62,25,-115,25v-11,0,-29,-0,-54,-1v-24,-1,-43,-1,-56,-1v21,91,31,147,31,169v0,33,-7,67,-22,103r68,28v21,-43,45,-70,74,-81v17,-7,55,-10,112,-10v87,0,131,-46,133,-138xm147,1135r-147,0r0,145r147,0r0,-145","w":705},"\ufb4c":{"d":"917,209r-69,-209r-804,0r66,209r577,0v-14,247,-22,377,-23,388v-11,84,-38,138,-79,161v-38,21,-118,32,-239,32v-21,0,-63,-0,-124,-1v-61,-1,-111,-1,-152,-1v25,93,38,152,38,175v0,35,-7,69,-20,102r72,28v27,-64,80,-96,159,-96r195,0v94,0,167,-28,220,-83v53,-55,79,-129,79,-224v0,-63,-4,-143,-13,-240r-22,-241r139,0xm252,1290v0,-18,-9,-27,-28,-27r-447,0v-18,0,-27,9,-27,27r0,43v0,19,9,28,27,28r447,0v19,0,28,-9,28,-28r0,-43","w":934},"\ufb4d":{"d":"841,577v0,-79,-9,-159,-27,-240v-21,-97,-51,-170,-90,-221v-39,-51,-60,-78,-64,-81v-24,-23,-55,-35,-94,-35r-505,0r83,209r430,0v96,0,144,53,144,158v0,132,-9,224,-26,276v-32,97,-99,145,-202,145r-401,0v21,89,31,146,31,169v0,33,-7,67,-22,103r68,29v23,-61,64,-92,125,-92v15,0,42,1,80,2v37,1,67,2,88,2v148,0,247,-34,298,-101v56,-73,84,-181,84,-323xm252,1290v0,-18,-9,-27,-28,-27r-447,0v-18,0,-27,9,-27,27r0,43v0,19,9,28,27,28r447,0v19,0,28,-9,28,-28r0,-43","w":910},"\ufb4e":{"d":"916,594v0,-123,-18,-241,-53,-354v-50,-160,-123,-240,-218,-240r-566,0r49,205r515,0v57,0,96,15,118,44v19,25,28,67,28,127v0,127,-6,215,-18,264v-27,108,-84,162,-173,162r-367,0r0,-137v0,-52,35,-78,104,-78v11,0,27,1,48,2v20,1,34,2,43,2r-34,-183r-183,0v-79,0,-118,37,-118,111v0,36,7,90,22,162v14,72,21,126,21,163v0,71,-12,149,-36,234r78,19v27,-67,84,-100,171,-100r301,0v106,0,180,-43,222,-130v31,-63,46,-154,46,-273xm252,1290v0,-18,-9,-27,-28,-27r-447,0v-18,0,-27,9,-27,27r0,43v0,19,9,28,27,28r447,0v19,0,28,-9,28,-28r0,-43","w":985},"\ufb4f":{"d":"1973,173r-73,-194r-42,0v-42,120,-126,251,-252,393v-117,133,-235,237,-354,312v-40,-63,-60,-131,-60,-206v0,-106,34,-208,103,-305r-74,-173r-309,0r62,171r112,17v-14,47,-21,116,-21,206v0,52,12,111,36,176v23,65,52,118,85,158v-40,27,-109,67,-207,119v28,69,42,120,42,153v0,24,-3,49,-8,76r75,22v21,-57,59,-104,114,-143v93,-65,229,-168,409,-307v34,124,51,234,51,330v0,36,42,54,127,54v62,0,114,-4,157,-12r-49,-227r-60,3v-50,0,-88,-24,-114,-73v-8,-16,-23,-63,-45,-140v115,-111,214,-247,295,-410xm819,797v0,-182,-50,-349,-150,-502v-100,-152,-233,-266,-400,-342r-31,0r21,216v101,42,196,113,285,214v97,111,146,216,146,315v0,60,-33,90,-98,90r-413,0v-47,0,-79,16,-94,48v-9,18,-16,56,-20,113r-32,435r163,43r17,-14v-15,-222,-22,-336,-22,-343v0,-33,5,-53,14,-62v7,-7,28,-11,63,-11r376,0v117,0,175,-67,175,-200","w":2027},"\u00a0":{"w":398}}});
